1265 100
年 -0.00018458562 0.0024085974 -0.0044804183 -0.00034005835 0.0031287796 -0.0018407577 0.0066188625 -0.006442484 0.0024062057 -0.004652316 0.0024056835 -0.00058370753 -0.00010306548 0.005282325 0.00061926036 0.0012196944 1.4216933e-05 0.0021429579 -0.0013205634 0.002120333 -0.0048763417 0.0020431285 -0.0039808303 0.003398299 0.0047538793 -0.0019223267 -0.0035188093 0.002295442 0.00043538763 -0.00592193 0.0052251047 -0.001972 0.0023035512 -0.0026195403 -0.0002682254 -0.004880955 0.0025199724 -0.0037065453 -0.003541295 0.0012762223 0.0041518467 -0.00690488 -0.007249763 -0.002673614 0.002605259 -0.0018822721 -0.005490848 0.0005206554 -0.0011239332 -0.004632125 0.0059949234 0.0010997285 0.005582022 -0.004395328 -0.0022611993 0.0018207679 -0.0019562643 0.00074160524 -0.0019592692 -0.00038125797 -0.0033018785 0.0029556914 0.006259216 0.0047599915 0.0030336948 0.0046510324 0.004347715 0.0036706412 0.0008668793 -0.0004885619 -0.003487463 0.0073212585 -0.004796979 -0.0028943666 0.0057299677 0.0030433566 0.00137394 0.0024169255 -0.0063799773 -7.1659506e-06 0.0067229816 0.0017758198 -0.0031588457 -0.0026926366 -0.002018932 -0.0041163163 -0.006979845 0.004459108 0.0043862043 0.0040514716 -0.0051950323 -0.0010042816 -0.0024187688 -0.0014084117 -0.0017283743 0.0037439559 -0.0043311995 0.0011208095 0.0061390945 -0.0005484984
数学 0.0037785682 0.0041569117 -0.0005914214 -0.00068946526 0.0022478611 0.0012347824 0.005307788 -0.005618715 0.0015530202 -0.0034354678 -2.8236207e-05 -0.0048629986 -0.00062422437 -0.003054214 0.0014401021 0.0011231983 -0.001391387 0.0025339127 -0.0010860466 0.0064455564 -0.005672109 -0.0053633703 -0.00510457 0.0019987407 0.004423092 0.0033454578 0.0021803037 0.0025350873 -0.0026213126 0.00033207782 -0.00021073355 -0.0036619368 -0.0041420767 -0.0036205477 -0.005236978 -0.00021764259 0.0030723256 -0.005866879 -0.004796025 -0.0024454077 -0.0042735976 0.00064967433 0.0008593715 -0.0022007064 -0.004550837 -0.0008390506 -0.005137711 0.004065736 0.004218145 -4.741383e-05 0.00039598838 0.0053639645 0.0051975106 -0.0025916891 -0.0048190127 -0.004155063 0.0059458953 -0.0017409198 -0.0052131456 0.002079194 -0.001556664 0.0032297147 0.004985552 0.0019550633 0.0058938414 0.005922783 -0.0022896312 0.00412843 -0.0014735627 -0.0017060675 0.0022106203 0.0005647901 -0.0049351873 -0.0022571867 0.0005560859 0.0011677138 0.00069215667 0.0021481072 0.00015221178 -0.0004119466 0.0011914448 0.00096081797 -0.001834999 -0.0015585596 -0.0038938187 0.0027022678 0.000934899 0.003579723 0.0037370003 -0.0025573203 -0.007633333 0.0029900838 0.0008880933 0.0009972521 0.0054646013 -0.0037652117 -0.0007376344 0.0011999286 0.003008441 -0.0001363482
中 0.0011428811 0.002940196 -0.0039681816 -0.0028749555 -0.0018633098 -0.0046581416 -0.0020891733 0.0025204625 -0.004235384 -0.00044373775 0.0045961523 0.0030292978 0.0021051348 -0.0008627693 0.0058468804 0.0028916849 0.0018010206 0.0055470443 -0.0026628724 -0.0034176211 -0.0022378932 0.0035759255 0.0012200166 0.0036949771 0.003644621 0.005110844 0.0008301713 0.0016994927 0.0037460716 -0.0044625322 0.0025508846 -0.006684518 -0.0044114683 0.00096007006 -0.0071910336 -0.004650055 -0.0038302336 -0.00022654867 -0.0046816887 -0.00074691145 -0.0013786306 -0.0005895096 -0.0075863544 0.0007923752 -0.0050996696 -0.0018220042 -0.0042730593 0.0045319996 -0.00061984063 -0.0002497144 0.003338454 -0.003407883 0.00010370509 -0.00061843765 -0.0022600875 0.0008864884 -0.0010245817 -0.0001380559 -0.004976801 -0.0025291075 0.0007307818 0.0028072223 0.0027637894 0.00053469336 0.004494939 0.0031352718 0.00420898 0.0034445168 -0.0025127823 -0.0007269556 0.003139572 -0.0020630509 -0.00066311215 -0.0018716786 0.0029409188 0.0064773066 -0.0025669753 0.0055500795 0.0022078885 -0.003500847 0.0029384529 0.0031644637 0.002776143 -0.0020533958 -0.0034662618 -0.0019458294 -0.0047593843 -0.00094949076 0.0009329486 0.0008801938 0.0019164738 0.0001443533 -0.0055128327 -0.0046651545 -0.00013275845 -0.0017507382 0.0050731697 -0.0010503081 0.003635681 -0.0005357185
符号 -0.0035373757 0.0062067737 0.0026884656 -0.0057502748 -0.00418345 -0.0025783945 0.00594816 -0.005723628 -0.0033829059 0.0027068234 -0.002932143 -0.0017167694 -0.0025141144 0.004024494 0.0005964411 0.0033937884 -0.0032960111 0.0016974689 0.0011095882 0.005213348 0.0011721068 0.001489679 0.0026423256 -0.0021928025 0.0014781393 0.00063834636 -0.0036540257 0.003009752 0.003598213 0.0018746133 -0.0006876855 -0.001567682 0.0047457684 0.0023069733 -0.0021804722 -0.0009469867 0.0051388363 -0.0010166764 0.00016195091 0.0024882075 -0.0030094916 -0.0020047382 -0.003273522 -0.00040563854 0.0016370614 0.0045484826 0.0011814685 0.0032052598 -0.0009059088 0.0017112495 0.0024631082 -0.0015289298 -0.002438062 -9.410125e-06 -0.0026637616 -0.0041218535 -0.000312782 -4.5094035e-05 0.0034577162 -0.00299505 -0.0019848028 -0.0014174075 -0.0005849972 0.0032021126 0.0032669017 -0.002640301 0.0015588503 -0.003743006 0.0044824313 -0.0040182765 -0.002067481 -0.0009387384 -0.0034112504 -1.4785084e-05 0.0016273396 -0.003011919 -0.0009826275 -0.0019447725 -0.00543016 -0.0037904514 0.0030579977 0.0038430304 0.001937057 0.0027835693 0.0032312921 -0.0050132032 -0.0071962834 -2.6258824e-05 0.0053493446 -0.00060886756 -0.0034942708 -0.0034556708 -7.607493e-05 0.0020290066 -0.00068611145 0.00019004123 0.002500967 0.0022575862 0.0051572816 0.0020198298
月 0.00017911074 0.0031242892 -0.0013557717 -0.0017484315 -0.0014910331 -0.0031992511 0.0046078777 0.0014179975 -0.004481073 0.002159341 0.0049619623 0.0036471912 0.0013270734 0.0022903902 0.0002913875 0.0011084921 -0.0027039198 -0.003601284 0.0020292422 2.7842736e-05 -0.0054378337 -0.003205241 0.0026199026 0.0020281698 0.003907626 -0.0046613235 -0.0047547496 0.0037214998 -0.00085905986 -0.0011190294 -0.0021930772 -0.005598157 0.0024304313 0.0048686475 0.0005089895 0.0016036552 0.0036491607 0.0009779892 0.0044207573 0.001691391 -0.002175729 0.002046993 0.0005753222 -0.00027659177 0.0012637355 0.002540056 0.0022340014 0.002100346 0.0015457598 0.0041660396 0.0023994267 0.0032087148 0.0017746637 0.001942316 -0.005727175 0.0028356083 -0.0024073883 -0.0026384841 0.0013121925 0.0038240626 0.0011462981 0.00014202502 0.0025536704 0.0025334524 0.0038746984 -0.0006596229 0.0025997886 0.003246556 0.0044282726 -0.0012313658 -0.0018669408 -0.002006395 0.0026515839 0.0055674026 -0.0041285926 0.005275655 0.0007165043 0.0053576105 0.0024299258 0.004100606 0.005747646 -0.00071976625 0.0028203528 0.004739611 0.0036528124 -0.00017887482 -0.005559733 0.0061881156 0.0045157103 -0.004037111 -0.0057215965 -0.001879501 -0.0052798335 -0.0043680975 0.0042627235 0.0038100032 -0.002492884 0.005362157 -0.003065117 -0.0048455074
研究 -0.001525401 -7.5148186e-05 -0.0025410017 -0.00023585935 -0.0038540107 0.0018373601 0.0023459345 -0.0033858886 -0.003572476 -0.0027723876 0.0057664923 0.0004481567 -0.0005666318 -0.0028070882 -0.002516729 0.000563638 0.0051930523 0.0012584892 -0.005930596 -0.0007590183 -0.004676259 0.0027802703 -0.004704655 0.00087591173 0.0010045905 -0.004649904 0.0033021055 0.00064644153 0.004993005 -0.0012067896 -0.0027631829 -0.0006201204 -0.0048844744 -0.0037034552 0.0023195148 -0.0032365292 0.0022315555 -0.0045940033 -0.0009852883 0.0017067643 -0.0017683575 -0.0055516185 -0.0042220564 0.0004007356 -0.004492629 -0.001996936 -0.0061956802 -0.003418937 0.0012243026 -0.0011274469 0.0038984322 -0.0026204558 0.004423855 0.0017183655 -0.0007258692 -0.003862016 0.002371465 0.0010147674 0.0018476784 -0.0017345601 0.0038074427 0.0014653734 0.005690696 0.004724357 0.004862099 -0.0018192361 -0.002715613 0.004008252 0.00375231 0.0047189333 -0.0025459912 0.0046857046 -0.00043630696 -0.0014833411 -0.0035561253 3.678071e-05 -0.0045418153 -0.0014712651 0.00058437046 -0.003709895 -0.0027819066 0.0027020946 0.001001814 0.0026472553 0.0015257391 0.0044936207 -0.0069020838 0.0019189033 0.0037780374 0.0034483084 -0.006596001 -0.003049605 0.0019475492 -0.0059571476 0.0043792813 -0.003171339 -0.0029747626 -0.0009589645 -0.002977453 0.00236302
科学 -0.0010325147 0.003518207 -0.0029152732 0.002366523 -0.0021824387 -0.0042042253 0.0015902433 -0.0013277839 0.005060883 -0.00033292826 0.0023450474 -0.00021368131 0.0014313939 -0.0014424542 0.0043781153 -0.0044550095 -0.00023215273 0.003841516 0.00051186595 0.004538769 0.0043295557 -0.0024832059 0.0034405908 -0.0007546857 0.0031412272 -0.0042063515 -0.0048689176 0.004564671 -0.0042451187 -0.0026849874 0.0027336483 -0.0049821455 -0.0017603373 0.005025333 -0.005631545 -0.0027520591 -0.004403606 -0.004263171 0.0045387503 -0.00016034501 -0.003975528 -0.0002647754 0.001993618 -0.0003531825 -0.004056567 -0.002651257 0.00013099117 0.00033481905 -0.001742321 -0.00011739744 -0.0013021246 -0.0027673233 0.00086997414 -0.0012880499 0.0024331766 -0.004226034 -0.0019896987 -0.0032333764 0.0039647296 -0.0029456129 0.0024104007 0.0046156715 0.0028931051 -0.0028419155 0.005420558 -0.0014697409 -0.0003314809 -0.0042034946 -0.005000961 0.0022752401 -0.0043040738 0.0017049022 0.002908947 -0.00060589466 -0.0012865438 0.004123534 0.0026562526 0.0025548798 -0.0023759059 0.002931699 -0.0019600487 -0.00019647238 -0.0026157517 -0.002345118 -0.0029612686 0.003229868 -0.0037618105 -0.0029005543 0.0050181737 -0.0029661031 -0.004792747 0.004270984 -0.0032280986 0.0028124521 -0.00020080859 -0.003358692 -0.0039970325 0.0035921088 0.004019868 -0.003264494
领域 0.0033954734 0.00045136773 -0.0051127584 -0.0042285807 0.0012714745 -0.0023972574 0.0040946454 0.0041345684 0.001701375 0.0044245217 0.0059857084 -0.0001254826 0.0016652722 -0.004654456 0.0001573407 0.0023473985 0.004675532 0.0048056943 -0.0008732646 0.006098269 -0.0030166006 -0.0012601379 -0.0013841212 -0.0019128672 0.0044144676 -0.0035319647 -0.00069351564 0.0002767459 0.0014115955 0.0023617172 0.0018380583 -0.0035399105 -0.0046139606 0.0044004405 -0.0014083519 -0.0043071345 0.003626048 0.0025198825 0.00015152391 0.0014592214 -0.002034422 0.0039117574 0.0025211803 -0.002839271 -0.0017732192 0.00080311135 -0.0035420256 -0.004271843 0.00055862975 -0.0018898151 0.004224577 0.0031373985 -0.002086136 -0.0032237773 -0.0001459225 0.0007825523 0.0013535726 -0.0045522517 -0.0025760264 0.003583765 0.0015391592 0.0063200486 0.0019753168 0.00012467455 -0.0008795539 0.00341448 0.0022735917 0.0023988662 -0.0046396847 -0.0015022584 -0.004522343 0.0031894385 0.003844553 -0.0036042249 -0.0021179651 -0.0028277417 -0.0007882199 0.0012376637 0.00072810665 0.00479915 0.0019394585 0.0005226618 -0.0026062143 -0.0031403697 -0.0032494727 -0.0054315696 -0.0018086834 -0.0011658499 0.0034163033 0.0036890612 0.0015461056 -0.0002767673 0.0035273803 0.0021124168 0.0056797774 -0.0023099773 -0.0042968537 0.0022915024 -0.0022596219 0.0028226415
邨 0.0039398167 0.006509344 -0.00052038993 0.0005612119 0.003916005 0.0014225501 0.002686873 0.003651994 -0.0024242064 -0.0006580851 0.004205401 -0.0026097707 -0.004593362 -0.0026109312 0.002984495 -0.0004048847 -0.0010041688 0.0029551883 -0.002722383 -0.0024251952 0.00036954758 -0.0037577662 0.0005977656 -0.0029198835 0.003154492 0.00032369266 -0.0035464363 0.0037430092 0.003294347 -0.0027505814 0.0066656917 -0.0027215318 -0.0027950704 -0.003125528 -0.00036179426 -0.0016409938 0.00012565943 -0.0067400765 0.0019244849 -0.0013396341 0.003044601 -0.0047309715 -0.00041813604 -0.0031153655 -0.0036830727 -0.0041757785 -0.0023892066 -0.003715328 0.005414638 -0.0038913863 0.0056880023 -0.0010980557 0.0037905846 -0.007827694 -0.0062561734 0.003890477 -0.003609788 -6.0652143e-05 -0.0014590181 -0.001985885 0.0015536682 0.0060069878 -0.0008413659 0.0058677862 0.0061940677 0.0015352279 0.004485394 0.0053785183 -0.0027944965 0.003540698 0.00044510042 0.00533579 0.0017832489 -0.002104062 -0.00042399295 0.0048449594 0.0037245078 -0.0018281019 -0.002559934 0.004544 0.007236332 -0.0021184878 -0.002845856 0.00012254463 -0.0014909046 0.0014158117 -0.0057708956 0.0046536666 0.009234511 0.00402616 -0.00035655263 -7.1473885e-05 0.0020323012 -0.0017865485 0.0024335189 0.004817036 0.0016761812 0.005404323 0.0022112303 -0.004490582
美国 -0.0046236836 0.003777736 -0.0043654963 0.0010673859 -0.0037564526 0.00025703368 0.003954422 0.0036371574 0.002684593 -0.0012463622 0.0026905194 0.0046703336 0.000115174174 -0.0002697272 -0.00011961338 0.0014110283 -0.0038370574 0.0050212243 -0.0031405063 -2.8204866e-05 0.0024553172 -0.00443329 -0.00072884734 0.0032257747 0.0018456402 -0.0013001169 -0.0040492094 -0.0018007676 -0.0009935373 -0.004159426 0.0034192486 0.0030752784 0.0032988829 0.0017079173 -0.00461594 0.0013793889 -0.0036262823 -0.0055381083 0.001961696 0.003335433 -0.0037284393 0.0035310916 -0.004756622 0.004958283 -0.00036704546 -0.0041999687 -0.0010310588 -0.0040695397 6.8367386e-05 -0.0038383163 -0.003263321 -0.0012848409 0.005681033 -0.0059790886 0.0029831443 0.0020989147 -0.0017277416 0.0006579704 -0.004068971 0.0014275163 0.0009412638 0.006428357 -0.00219225 -0.0010636875 0.0035020553 -0.0026584216 -0.00029468135 0.0021595806 -0.0034678706 -0.003347601 0.0017107957 -0.0009071242 0.0008739901 -0.0019829415 -0.0022495026 0.0015279668 0.00462695 0.0041703396 0.00036834777 -0.0024228338 0.005184547 0.0026769745 0.0033167528 0.0049812924 -0.0055279415 -0.0017294362 -0.0016622939 0.0009451422 0.0038618534 0.00089500955 0.001649705 0.0008968378 -0.0029485263 -0.0040208637 -0.0003110095 0.0023902387 0.0031629289 -0.0036042975 -0.0013342315 -0.003259974
美元 -0.002923541 -0.0007105357 0.001515221 0.0007099032 0.0046797213 -0.0028015166 0.00079042657 0.0028687112 0.0037790476 -0.004167321 0.00029561837 0.0022088948 -0.0017960613 -0.003304997 0.0035088148 -0.0032984316 0.0021813256 -0.003951783 -0.0040879273 -0.0036294109 0.00407872 0.004014472 -0.0024039524 0.0023943475 0.0048810304 0.0026092946 0.0017333594 0.00022013609 0.003167487 -0.0032479293 0.002337737 -0.0036775118 -0.0019610506 -0.004211107 -0.0053526973 0.0037955737 0.0009061453 0.0018906994 -0.00025755342 -0.0019641016 0.00410362 0.003157291 -0.0068619926 -0.0028779546 -0.003500502 0.00015979278 -0.001390888 0.0010464276 -0.0022945898 0.00466156 0.002711313 0.0035457301 0.0029805298 -0.0055397386 -0.0052339425 0.003194613 -0.0034204058 0.002274188 -0.0051138285 0.00503998 -0.0030076616 0.00404981 0.0026765799 -0.0024630954 0.006440826 -3.7991187e-05 0.00021694413 0.005269066 0.003487464 0.0026363055 -0.0017785631 0.0048328894 0.0003597278 0.0052827545 0.002226314 0.0015971801 -0.0034121491 0.0047855973 -0.0029441821 0.0020168002 0.0035754887 -0.0022293201 -0.004945338 0.002069516 -0.004727535 0.0016541104 -7.250852e-05 -0.0018521857 -0.001372199 0.0037082958 -0.0015790064 0.0005938787 0.002474254 -0.006121316 0.005623763 0.0019439592 -0.0022630536 -0.002357316 0.0062779114 -0.0042632828
一种 -0.0006292611 -0.00354812 -0.0004297811 -0.001112219 -0.00091651897 -0.003946416 0.0019795639 -0.0010254091 0.00431595 -0.00010020428 0.005306766 0.002840246 -0.003950047 0.0034438202 0.0013404469 5.3023345e-05 0.0048011425 -0.00049379334 0.0008621139 -0.00081168255 -0.0008621415 -0.004469802 -0.00061499083 0.0002750073 0.0029850425 -0.004429623 -0.00026152155 0.0038462412 0.0017010694 0.00092151156 0.0022311388 0.002345166 0.0010112792 -0.0014398897 -0.0031275123 -0.0054803323 -0.0035943866 -0.001435629 0.0045148567 0.0017267395 0.0041030846 -0.0012775968 -0.00022095842 -0.0005993785 -0.0015389497 0.0027055542 0.0018481466 -0.004986613 0.0021637443 -0.0005872106 -0.00059061026 0.0024864406 0.005411631 -0.0050274907 -0.0001474563 0.0027114528 0.004862074 -0.0049099554 -0.0038712244 7.207151e-05 -7.008506e-05 0.0020538773 0.0016556411 -0.0032334374 -0.000393519 0.0028154054 0.004326924 0.005428034 -0.0016482939 -0.003345906 -0.0052027577 -0.0025688764 -0.0008653729 -0.0042982567 -0.0018346889 0.004771337 -0.0016419174 0.006729794 0.0020015656 -0.0018726776 0.004327154 -0.0032369534 -0.003995917 -0.0039545577 -0.00015557092 -0.004801689 -0.0011465356 -0.002904001 0.0060782186 -0.00033758854 -0.0052087824 -0.0042878534 -0.0019504376 -0.0011947154 -0.00065398944 0.0017113824 0.0027676823 -0.003022123 0.0042370297 0.00088796136
发展 0.0007586511 0.0044036945 0.004616284 -0.00015781942 -0.0027844408 -0.004728718 0.004684588 -0.0046813637 0.0042681545 0.002849527 0.00023653105 -0.0009172904 0.0040454143 -0.0012620997 0.00063775707 0.0016356737 -0.0023295328 0.005316619 -0.0028030872 -0.0017216017 0.00021370871 0.00037038716 0.0037602307 0.0022557897 -0.00371822 -0.0038812717 0.004384911 -0.0030316517 0.0028555265 -0.002049358 0.0046504326 0.0029705605 -6.487441e-05 0.0019484541 3.249371e-05 -0.005507704 0.0005015739 -0.0035481441 -0.0040960237 -0.0055983355 0.0032037345 0.0015282226 -0.0050097792 -0.00038446567 -0.0028789458 -0.0030046976 -0.0011370808 0.0018849911 0.00089023425 -0.00020081218 0.002500775 0.005117539 -0.0017939601 0.0006016627 -0.004755812 -0.0032844543 -0.0022168248 -0.002861199 -0.0017325523 0.001996342 -0.001712164 0.005381064 0.005055138 0.0035483392 0.0028581978 0.004375826 -0.0011522749 -0.0020363706 0.0027991452 0.002329095 0.0032086254 4.5550187e-05 -0.0035637105 0.004482142 -0.0012825141 0.0016488768 0.0018790574 0.0046193954 -0.00571122 0.0024313356 -0.0028532443 -0.003430233 0.0039524157 -0.0030172246 -0.0004976078 0.0014967908 -0.003052716 0.004005855 0.0021840339 0.0006475939 -0.00035811905 0.002548448 -0.0039907205 0.0034326457 0.004810786 0.003486206 0.0054107765 0.0020731785 -0.0028339957 -0.001048024
理论 -0.0043932116 -0.0023593486 -0.0005105747 -0.0052486667 -0.0053731594 0.004683725 0.0008821819 0.0020613857 0.00037584006 0.0048023313 0.0028676097 0.004157852 0.0022299497 -0.001668825 -0.00010193349 0.002411785 0.003453926 -0.0015747667 0.0008917491 0.003421834 0.0013613123 0.0010894896 -0.000686472 0.0005095524 -0.00036000716 -0.003790535 -0.003255976 0.0018064103 0.004803656 -0.003784673 0.0041276966 0.0031139415 0.0045687626 -0.0028053778 -0.0047167838 0.00048820328 0.0029642757 0.00056002714 -0.0032049315 0.000117084506 -0.0041613276 -0.0023977393 -0.0035746845 -0.003430299 0.004021516 -0.0029761745 -0.0050904574 -0.0010647648 0.003860799 -0.0046287617 -0.0019488828 -0.0037898116 0.0049015717 -0.0021664542 -0.0049947533 -0.0042112763 0.005932121 0.0015391685 0.00014706074 -0.0035981233 -0.0015610863 -0.0009260296 -0.0018162752 0.004075134 0.0062640067 0.002626036 0.0025953935 0.0027051107 -0.00034168633 0.0009486747 -0.003707299 0.0020049983 -0.00228817 0.0031434488 -0.0006498994 0.0034239998 0.0011555075 0.0018557776 0.00072982593 -0.0008427087 -0.0025159682 -0.004545752 0.0023372201 0.004918341 0.003593708 -0.005010326 -0.00058060104 -0.00019453229 0.0027625419 -0.0010463928 -0.004226794 0.0052329553 -0.004332306 0.0022129354 -0.001621287 -0.003345219 0.00113741 0.002086773 0.00012102815 0.005077306
进士 -0.003774242 0.0027508792 -0.0038665792 -0.0033006938 0.0034926082 0.0041942718 -0.001311996 -0.0027834575 0.00037086481 0.0036327783 0.004864788 -0.001311715 -0.0027500314 0.0003079721 -0.0022537792 0.0055308044 -0.002281161 0.0056800563 0.002119832 0.0001330753 -0.0039192676 -0.0050573014 -0.0066976235 0.00347799 0.0020953964 -0.0016713017 -0.0005560787 -0.00373322 -0.0007400076 -0.0028449069 0.0056932527 -0.005209474 0.004050266 0.0043726796 0.0031049608 -2.226476e-06 0.0021556674 -0.0005163286 -0.0023064713 -0.001502426 0.00474517 0.0023344203 0.0012438478 0.004961183 0.00010398663 0.00070111797 -0.004907427 -0.004714668 0.0020651843 -0.00068596815 -0.002975129 0.0012056493 0.003382487 -0.0015216592 -0.00023259134 -0.0016394471 0.005507771 0.002491605 -0.0016353349 -0.00085905433 0.00320575 0.0050730207 0.0047151106 -0.0010610212 0.0058463984 0.0042341924 0.0017092815 -0.0039058514 -0.0028990377 -0.0026066974 -0.0042326557 0.004838517 -0.0008209649 0.00368288 -0.0023775832 0.0044953935 -0.003411803 0.0048829056 -0.0039874627 0.0023281032 0.0033980452 -0.0041426057 0.0020421247 0.00041670742 -0.0038838652 -0.004569448 -0.0040196306 0.005457877 0.0014032683 0.00064902444 -0.0017700542 -0.001930374 7.0595735e-05 -0.00073819107 0.0030826756 -0.0037455335 0.0018111218 0.0053652665 -0.0007571816 -0.003134513
数学家 0.0021788452 0.001816793 0.0009920989 -0.004900624 0.0001546994 0.00044515464 0.003786621 0.0025232255 -0.0016892472 -0.0022833385 -0.0020014471 0.0012772623 -0.0038443392 -0.0024388488 0.005422876 -0.003088698 0.0034534885 -0.00018585124 0.0010460253 -0.0018602079 -0.0022738674 0.002822942 -0.00022234958 0.0012357705 -0.002842019 0.0039761947 0.00018043806 0.004474996 -0.0014303242 0.0007264647 0.0050697164 -0.0051686903 -0.0043606814 0.00063178234 -0.0023190521 -0.0013690535 0.0046087033 0.0011182649 -0.0051157614 -0.005458455 0.0023910329 0.0002608529 -0.0035194447 0.0017791197 -0.0024671196 0.0035694002 1.2229753e-05 0.0008624984 0.00085282477 -0.00269649 0.0033346498 -0.002280745 0.0011419987 0.00229983 0.0019268731 -0.005125164 0.00070552016 0.0013299213 0.0032184133 0.0022712804 0.003180914 -0.0029102874 0.0018210099 -0.002853286 0.00034989594 0.0010315756 -0.003635255 0.00018698457 0.0004887434 0.00064159796 0.0008412013 0.0023862796 0.0041321176 0.001674947 -2.9571895e-05 0.002246148 0.0011304221 0.0055077006 -0.0002629908 -0.0018174005 0.004096308 -0.0018015675 0.003438443 0.0023541236 -0.0036672656 -0.0021265424 0.0025905038 -0.0032475358 0.004155298 0.0008090218 -0.0025229852 -0.00015766565 -0.0037262721 0.002984578 0.0022035725 -0.0022967863 0.0034921295 0.0020981405 0.0044618477 0.001288899
空间 -0.0021793672 -0.0017950024 -0.0030889155 -0.003614063 -0.0011745748 0.004866201 -0.0036541503 -0.0051097292 0.0023255155 1.4417066e-05 -0.0011383978 -0.001317682 -0.0030173555 0.0001388775 0.0008363156 0.0007324114 0.0025337373 0.004400226 -0.00083947746 0.0048959097 -0.00091241434 0.0020680686 -0.0045395712 0.00061843474 0.005217086 0.002210809 -0.0005686843 -0.0025372584 0.00057336985 -0.0030936992 0.0031892776 0.0018334237 -0.00083410024 0.004684744 0.0033774318 -0.00088413124 -0.0013492286 -0.0027114009 0.0037278924 0.003865656 -0.0039333147 0.0018295042 -0.0018271466 -0.003850256 -0.0023348937 0.0013107635 -0.00055867113 -0.00066340674 0.0042478857 0.004112228 0.0052327733 -0.00013249437 0.002370841 -0.0018490711 -0.004693694 -0.0048759645 0.0054745195 -0.003041913 0.0022519599 0.0021566113 -0.0014119796 0.0010642788 0.0017409164 0.0026463256 0.0003615224 -0.0010472797 0.0037400573 0.0035377655 -0.0018271746 -0.0029841822 0.0010466212 -0.0017415013 -0.0054130997 0.0009826411 -0.0004520233 0.0003165071 -0.00200954 0.0020795735 -0.0018032742 0.0031479548 0.0049896766 0.0021264036 -0.0014652184 -0.0036275017 -0.002176631 0.0025874404 -0.0040726066 -0.0003182824 0.0062881764 0.0027124311 -0.0020925167 0.0053690434 0.0037867634 -0.00035365342 0.004596969 -0.004650247 -0.0012297787 0.0022864144 0.00268084 -0.0048372457
概念 -0.0038651861 0.0019127919 0.0018350424 -0.003298367 -0.004433782 0.00455009 0.0028243551 -0.0035827153 0.0003713722 -0.00039655514 0.0058157686 -0.0018787712 0.001638975 0.0011223105 0.0041935197 -0.0031186123 0.0036269233 0.004883652 -0.0013075848 0.0017774161 0.0024158887 -0.004337712 -0.001248853 -0.00018874255 -0.0024173548 -0.0044595124 -0.004217254 0.00091919216 -0.00016072433 -0.0022725991 -0.0034037756 -0.0013756749 -0.0014972383 -0.0038276324 -0.0002217883 0.0025333008 -0.0009964341 -0.0023497876 -0.0031498459 -0.0013432051 -0.0024811004 0.00045417735 0.0009733053 0.0015140019 -0.0032614137 0.0030070064 0.00391588 -0.004573881 0.0009347402 -0.0013769702 -0.0032068866 -0.003389336 -0.0026407344 -0.0037010312 -0.0031409063 -0.0048221974 -0.0036303948 -0.0017610218 -0.005056153 0.003099336 0.004463831 0.0057241344 0.0032016446 -0.0016886402 -0.0022563206 -0.0010353773 -0.003721353 -0.0041708485 -0.00026708608 0.0052215615 0.0011734026 -0.0032962037 -0.0021620227 0.003079605 0.0039641303 0.002342366 -0.0023898722 -0.0010515515 0.001714401 -0.0019287141 0.0054027415 -0.0014251004 -0.00063515455 0.005317966 0.0037830933 0.0038646376 0.0028421248 0.005497402 0.0070630116 0.0032863617 0.0031290385 -0.004619913 -0.000393591 -0.003537608 -0.0019592915 0.000187054 0.0023385012 -0.0033045483 -0.0023875795 0.004486189
时 0.0014403525 0.0053924955 0.00084050995 -0.0018232577 0.003873741 -0.004312079 -0.0009799167 0.0038294196 -0.0011750902 0.0024437332 -0.0010092682 0.0016987042 -0.004467205 0.0038490624 -0.0017344119 -0.0023568235 0.0040659904 0.005502542 0.0019967144 0.0025493985 -0.0031560054 -0.0015816181 -0.005655688 0.0035345317 0.00041388255 -0.0022538344 0.0034910417 -0.003193919 -0.0033233222 -0.0016828115 0.005471485 -6.248703e-05 0.0003213898 0.0045877867 0.0016258276 0.00027445125 -0.0041134274 0.003013785 0.0017653871 -0.0022556642 0.0017253526 0.003136676 -0.006010093 0.0038306713 -0.0058023487 -0.0014341963 0.0024169376 0.0010972681 0.0013296428 -0.0037038887 6.247994e-05 -0.0005788487 0.0063465326 -0.0024124985 -0.0041852193 0.0022913446 -0.0018727359 -4.2342654e-05 0.0007336555 0.0036423937 0.0012785237 -0.0017952231 0.00050280656 0.0036972188 0.004462042 0.00021757637 0.0032802185 0.0011852226 0.0047179265 -0.0031105133 0.001786429 -0.0002986624 0.0039532892 -0.0013271117 -0.0045373896 0.004739779 -0.0018242637 -7.8368124e-05 0.0013614504 -0.0049007074 -0.00140748 0.0030307618 0.0018553919 0.00072362326 0.004190616 -0.0011148379 0.0018790768 7.16927e-05 0.0023216663 -0.0032401162 -0.0035187483 -0.003913644 -0.00082534633 -0.0017381021 -0.0018464972 -0.00051403994 0.003705262 0.0015065371 0.0019291798 -0.0035577845
新 0.003447917 0.0023437566 -0.0015256478 -0.0016887749 -0.0044235038 0.004015665 0.0023169415 -0.0008268807 0.0044464427 -0.0015698997 0.004359108 0.0012069938 0.00077616924 0.0010981025 -0.0032312823 -0.004187636 -0.003108482 -0.0019241372 -0.004111612 0.0024623524 -0.0013554116 -0.0017301091 0.0032432578 0.004892446 -0.0043580467 -0.0017273511 -0.00038836864 0.00010520903 -0.0011831134 0.0004744668 0.003685759 0.0033512902 -0.0011729796 -0.0013786376 -0.00343219 0.002518526 0.0042435112 0.0026721528 -0.0023238363 -0.0030821979 0.0036277205 0.000770022 0.0016354249 0.003985021 -0.0049973493 0.002742042 -0.004789947 -0.0033639418 0.0051151216 -0.00015694964 0.0051548127 0.0035244916 0.0028883833 0.0013971931 0.0030159734 -0.0021882064 -0.0039163185 -0.004951819 -0.00095117546 -0.0014906515 0.001518878 0.002694252 0.0018493825 -0.0003203512 0.00053769414 0.0009065989 0.0025281864 0.0003446823 -0.0030645453 -0.0015878791 -0.00556283 0.005423614 -0.00084759155 0.0041729766 -0.0005087183 0.004367596 -0.0041077603 -0.0024559535 -0.0054537277 -0.004248564 -0.0022317625 -0.0029542416 -0.003290779 0.0039021547 -0.0020937657 0.0035980213 -0.0036097968 0.00438338 -0.0009596067 0.0047238297 -0.003188193 -0.0020870091 -0.000993303 -6.1920415e-05 0.0010420589 -0.000798332 0.0030401917 0.0027511336 0.0033533997 -0.0019406234
包括 0.005110334 0.0013682886 -0.002777598 -0.005183535 0.0013307485 0.002100237 0.0027689615 0.0011404997 -0.0039639263 -0.00014028134 0.0039198324 5.1590036e-05 -0.0048321276 0.0044158483 0.0048984443 0.0042702854 -0.0022145044 0.0006298793 -0.0016681558 -0.0024952574 -0.0022364343 -0.0037276598 -0.002709103 -0.0016651457 -0.0034402595 -0.0013035678 0.0024971764 -0.0036197142 0.00048384463 0.0023799576 0.002061239 -0.0056698727 0.002986723 -0.001299927 0.0008804498 0.0010284795 0.0012909324 -0.0029607385 -0.003944378 0.0003354361 -0.0021658028 -0.0011511556 -0.0010662881 -0.002760973 -0.0006993558 -0.003450052 -0.0056415107 0.00043663144 0.0031941645 -0.004608696 0.0015534082 -0.0027952152 0.0014605782 0.0022135528 0.0034997752 0.0011016622 0.00036301345 -0.0043627783 0.0038129578 -0.0028528997 0.004503724 0.0010783093 0.0020403992 -0.0019146033 0.0019724339 -0.0040908954 0.0028751278 0.0052173566 -0.0025669488 0.0012657358 -0.0006205281 0.0032087245 0.0024467397 -0.0019806847 0.005530175 0.0010262836 -0.004360146 -0.0021812606 -0.002947714 -0.0008369227 0.0037414525 -0.0010274898 0.0049849106 0.0036635746 -0.0025883955 -0.0010588528 -0.0068719634 -0.0018133847 0.00013271658 -0.0008121411 0.0029503761 0.0046248427 0.003441008 0.0009609424 -0.0005858604 0.0027787674 0.0012569749 -0.0029901958 -0.0007906052 -0.0004895045
向量 -0.0038120751 -0.0021814376 0.0031519278 -0.0032188334 -0.00055673625 0.000743691 0.00065733097 -0.00025444987 0.0024561256 0.00047897865 0.0037156907 -0.0009106294 -0.0018906457 -0.0021207952 -0.0025741495 -0.0032677457 0.0032003776 -0.0019295061 -0.0063054548 -0.0013798246 -0.005819768 -0.005845652 -0.005367807 -0.0023753217 -0.0011692664 -0.001259477 0.0020270222 0.004870268 -0.0006150128 -0.002254193 0.0017618496 0.002786637 -0.0037098248 -0.0017268843 -0.00086474966 -0.00055662746 -0.00063415733 -0.0053777625 0.00407447 -0.0039219703 -0.0024559277 -0.005776086 -0.00714565 0.00035180058 0.0025093625 0.0011045134 -0.0037925348 -0.0015784185 0.0026477263 0.00030523154 0.00596952 -0.004309535 0.0030734541 -0.0012987255 0.00068390486 -0.0027679016 -0.001219003 -0.0013917058 -0.005518085 -0.0047594085 0.0026231534 -5.63096e-05 0.005831511 0.003597641 -0.0018852496 0.00011015797 0.0028019757 -0.0036484397 0.00012985402 0.004707675 -0.0036874525 -0.001935761 0.00389196 0.00054100255 0.00096728624 0.0033904624 -0.0036381402 0.0049361736 -0.0013311936 -0.0045978865 -0.0011417342 -0.004764205 -0.003853683 -0.0019584023 0.0015401469 0.0013943946 -0.0075252587 0.0039205384 0.0074383877 -0.0004954232 -0.0029908798 0.0022741414 0.000885535 -0.0058348663 0.0013849532 -0.004249946 -0.0011997165 1.8659197e-05 0.006115607 0.0027447557
学生 0.0040619494 0.0038180347 -0.0015558949 -0.003827051 0.004497521 0.0043329205 0.00568754 0.0026640114 -0.0005519079 -0.0020065212 -6.340655e-05 0.0012113727 0.0009879203 -0.0003788885 0.0016460472 0.005370266 -0.0031449718 -0.0012355001 -0.003171974 0.0037430364 -0.0044920063 -0.002459321 -0.0004939835 0.004979398 -0.0016846766 0.0051690512 0.00014824259 0.0041880095 -0.0046887537 0.0020818177 0.00039678346 -0.0046386854 -0.0029144355 -5.068573e-05 -0.004438842 -0.0024922602 -0.0033496842 -0.0023970667 -0.0013026956 0.002640042 -0.0015786663 -0.0041799424 0.0018957554 0.00091332727 -0.004794883 -0.0018074007 0.0006162348 -0.0034737168 -0.0006083354 0.00012016717 0.00551244 0.0049427263 -0.0006144388 -0.0057460596 -0.0065388447 -0.0011673742 0.0020656828 -0.0038775064 -0.00321487 -0.0048146197 0.0016399059 0.002940532 -0.0032569526 -0.001610596 0.0053439536 0.0031950509 0.0037537313 0.0037677884 -0.0012533809 0.00040411946 -0.005068722 -0.0007942944 -0.0012452161 0.0048795696 0.004144358 0.0032292325 -0.0043552397 0.0023889323 -0.00553632 0.00041613998 0.004970406 -0.0032537482 -0.0014555431 0.0036206176 -0.0024772834 -0.0031171914 -7.607071e-05 0.0031159066 0.0075338525 -0.0016992583 -0.006461574 0.00094541104 0.001296543 0.0003442708 -0.0009207716 -0.0012510923 -0.0047173533 -0.0038366676 0.004691993 0.002367313
咖啡杯 -0.0035463816 0.0025397518 -0.00091862265 0.0027949482 0.0011150083 -0.0046166093 -0.003786238 0.0037443049 0.004237694 0.002608261 0.002898276 0.0016158568 0.0020264892 -0.00082810235 0.005417712 0.0038696781 0.004157077 0.0042393347 -0.00072907464 0.002886746 0.004226055 -0.006506916 0.0025658463 0.0040868823 0.0007619307 0.0040032715 -0.0037683072 -0.0008858321 -0.0033671486 0.0018219221 0.0024494221 0.0024768326 0.0017631877 -0.0043138457 -0.0066285306 -0.0017690405 -0.0008908549 -0.0050864755 -0.0013966861 -0.004830796 0.0047272528 0.0018773029 -0.0008597606 0.0023916713 -0.003091844 -0.0015642241 0.0035842191 0.00069233973 0.0030253555 -0.0033856106 -0.0030313774 -0.004394486 0.006987684 -0.007131668 0.0031362365 -0.00089360704 0.0005735474 -0.002564088 -0.0007184051 8.876336e-05 -0.0028093783 0.005832964 0.00091147085 -0.0029991958 0.0010551446 -0.00037951907 -0.002935418 -0.0034696285 0.0039475313 0.0027844294 -0.006025125 -0.0005498448 -0.0033642747 -0.0019982434 0.00025426463 0.0044266786 9.2945986e-05 0.0004909598 0.0014281854 0.0029722142 -0.0004432597 0.00495351 0.003975725 -0.0037139067 0.0019045618 -0.0038870727 -0.0013549646 0.0025769854 0.0069936737 0.0005264945 0.00053485105 -0.00060683384 0.003806274 -0.00015025274 0.0015538365 0.00013538051 0.0024735304 0.0039869086 -0.0016398514 -0.0046888883
世界 -0.004460631 -0.001801955 -0.0002813339 -0.0061380216 -0.00067160185 4.0745876e-05 -0.00010980864 -0.0032191346 -7.389118e-05 -0.0009077114 0.0039000378 -0.0042080395 -0.00048835046 0.002136294 0.0050170305 -0.00438413 0.0032143157 0.00042449217 -0.0017352311 0.005590515 -0.0055946168 -0.0017908084 -0.0027185054 -0.001257835 -0.0035318483 0.0014131124 0.0016884819 -0.005129309 0.0021931096 0.0010414252 0.00043425366 -0.00015128055 -0.004062605 -0.0033332093 -0.0042370358 -0.0020122034 -0.0028773895 -0.0033199487 -0.004627411 0.004044397 -0.0012972766 -0.0057703443 0.0024188769 0.0041594785 -0.001365044 5.8742066e-06 -0.005408637 0.0015039372 0.004403494 0.00028861596 0.003614739 0.0024941128 0.0050152973 0.0025720445 -0.0045658215 0.0038612094 0.004286507 -0.002291016 -0.004018684 0.003173126 0.003416279 0.003542792 0.0049440525 0.00422589 0.0005366967 0.004468976 -0.0031016893 -0.003239539 0.0040516965 0.0046448307 -0.0011787824 0.0057093203 0.0013463871 8.4076106e-05 -0.002831209 0.002737689 -0.004703204 0.00060892967 0.0014495095 0.0037191524 0.005726077 0.0025593461 0.002277112 -0.0014696077 -0.005610173 -0.0055960687 -0.0038529004 0.002454281 0.0003841227 0.00049483153 -0.0059541264 0.0040602754 -0.0038725988 0.0033515922 -0.0014874877 0.004557432 -0.0044873143 -0.0007337288 0.0020797658 -0.0024553752
2015 0.0008041688 -9.3150506e-05 -0.0005015701 -0.005590827 0.0039669373 -0.004102445 0.0007873699 -0.005066823 0.0027728132 0.004288587 0.006234472 -0.0015813053 -0.005650961 -0.0012327746 -0.00088993873 -0.0022918268 -0.0025570656 0.0016180531 -0.0025225305 -0.0015159507 -0.005145746 -0.00580839 0.003736134 0.0034558305 -0.00060727523 0.0046885232 -0.0016005273 -0.0013398009 -0.0021730654 -0.0048038242 0.0019814242 -0.005035002 -0.0024308907 0.0022334754 -2.4258281e-05 0.0008592907 0.004497462 -0.0050260713 0.0007081502 0.0028559538 -0.003643012 -0.0028890863 -0.005895673 -0.00047005535 -0.0052287523 -0.003852416 0.0006889648 -0.0019660117 -0.00077210454 0.002454497 0.0030975854 -0.00011196228 0.0054911915 0.0025203568 0.0020162647 -0.0017140246 0.005132967 0.0018487741 0.003084585 -0.002074312 0.0015779628 -0.0016882385 -0.00071890495 -0.0008026631 -0.0029004465 0.00026633372 0.0007807061 -0.0017830865 0.0016037906 0.00463049 -0.005661014 0.0005622862 0.0014674513 -0.002957792 0.003533537 -0.0003673522 -0.0006769609 0.0052843164 -0.006009611 -0.0020345189 0.005476643 0.0033023406 -0.0005534992 -0.00021533816 -0.001617831 -0.0013354077 -0.0055378685 0.00028277747 0.0025208672 0.002038907 0.0025791435 -0.0041781585 0.0016609179 -0.00088041055 0.0018945193 0.0051173237 -0.0034471306 0.0011610811 -0.0022388445 0.0024238233
结构 -0.002782321 -0.00020246292 0.0036443889 -0.00037049962 -0.0019271136 0.0051144627 0.0049782353 -0.00084174983 0.0018139248 0.0045600217 -0.0023036962 0.0036872458 0.0032680412 0.0040703067 0.0054238215 0.0022739966 0.005549074 -0.002931485 -0.0012217909 -0.00045388896 0.0031476654 -0.0027908343 -0.00565625 0.0034775222 0.003313767 0.0026452604 -0.0028560632 0.0016026043 -0.00023175435 0.0014032199 0.005828331 -0.005435963 -0.0019087298 -0.0026762492 -0.0055258926 0.0037168826 -0.0047820783 0.0035483663 -0.00029360974 0.0035242073 0.004401498 -0.0013849845 -0.004322434 0.0038265479 -0.0026050545 -0.00017378682 -0.0039948383 -0.0050226822 0.0053010974 -2.0457557e-07 0.00458137 0.00269714 0.0025287983 -0.0037619565 -0.0055057644 -0.0013305708 0.00411484 -0.0039187935 -0.00056829856 -0.0005790679 -0.0027482745 -0.0017197205 -0.0034233818 0.0029787621 0.0054783416 -0.002906788 -0.0028593892 0.0010399552 -0.0047135106 0.0022889397 0.0034478633 0.005636228 -0.0025254046 0.0047614626 0.0039617927 0.0060094404 -9.223163e-05 0.0029888146 -0.0005370464 -0.005121286 0.0051755374 0.0031334434 0.0010482288 0.0006549345 0.004088997 -8.200555e-05 0.0022801883 0.0013639962 0.003026774 0.0053079044 -0.005093043 0.00016326857 0.00015627457 -0.004574523 0.0017305537 0.00012228655 -0.0015051641 -0.00010411425 0.0018744355 -0.0032130152
日 0.0037189345 -0.0037060678 0.0009367586 -0.004311523 0.00095614145 -0.0007823462 0.000119620425 -0.0033934738 0.0042228573 0.001439037 0.004716815 -0.0021860008 -0.0048904005 0.0031007307 0.0052084373 0.0020473134 -0.0047092736 -0.000675072 0.002445003 0.002558373 0.00200239 -0.0047350875 0.0023158572 -0.00014671986 0.0013790847 -0.0013023751 0.0023200049 -0.004772157 -0.0016668718 -0.004498567 0.005765511 -0.0009527422 6.8122834e-05 -0.0030592107 -0.003580406 0.00045595114 0.0050740913 0.00080386386 -0.0037197424 -0.0043268446 0.0046687583 0.0008426013 -0.0062668924 0.000588762 0.002050338 -0.0008596185 0.0040090596 -0.0012444069 -0.002705341 -0.0037859422 -0.0013397823 0.0037498928 0.0035740384 -0.0028600236 -0.005461192 -0.00010011418 0.001930734 0.0030853052 -0.002762779 -0.0045069046 -0.0021704491 -0.0012913288 -0.0013421807 0.004875191 -0.0032953068 0.0007549571 0.00052423484 0.00065156614 0.0003802264 -0.0010551551 -0.004091007 -0.0024579284 -0.0020580695 0.005343709 0.0038031966 -0.00055678334 8.2896986e-05 0.00050712214 -0.0008542441 -0.0020191912 0.0024265219 -0.003716559 -0.0023345463 -0.0014442133 0.003096857 0.00030011078 -0.0025237133 0.0028506448 0.006224255 0.0004948707 -0.0044101537 -0.004206874 -0.004793033 0.00016976663 -0.0037638408 0.004723587 0.0015964297 0.0025364114 0.0035985715 -0.004407955
大学 0.0037252821 0.0039897943 0.0026302019 -0.0061542545 -0.0048904703 0.004751164 -0.00096530694 -0.0049043344 -0.001365326 0.0029716478 -0.00058257533 0.0017135461 -0.0015228125 0.0045192665 -0.0014636252 0.00043307117 -0.0020451364 0.0042150794 0.00031831817 0.0034613842 -0.00089688454 0.0043997723 0.0009266226 0.0025215615 -0.003146703 -0.0029768068 -0.00494091 0.0020049864 -0.0047526765 -0.004122182 -0.0024909533 8.502489e-05 -0.0020260122 0.003729873 -0.004441942 -0.003935254 0.0025513126 -0.00036660628 0.0036055876 -0.0009030508 0.0024148147 -0.0039793616 -0.0004382368 -0.000732564 0.00020796637 0.004737667 0.0017503174 0.0050117224 0.005268292 -0.0015631478 -0.0017859597 -0.0018949455 0.003787852 0.00050069497 -0.00029452462 -0.00034676152 -0.0026426117 -0.0005105453 -0.0053208633 -0.0020677897 0.0048799193 -0.0036438417 -0.0017477929 0.0041951006 0.0054408005 -0.002832528 -0.0047950116 0.00056907284 -0.0018371234 -0.0008286924 -0.0051785996 0.0056217485 0.0015801174 0.0034663603 -0.0041166926 0.005520143 -0.003940086 0.005475113 0.002687776 0.0022593522 0.003165159 -0.0008574367 0.0032854672 0.0024009147 0.0036091863 -0.0042066723 -0.00389544 0.0039205696 -0.0016872204 -0.0023034248 -0.0049727005 -0.0018341017 0.00027524758 -0.001265855 -0.0008823472 0.000461149 0.002731533 0.00074602367 0.0013934374 -0.0017420547
香港 -6.748368e-05 0.003610036 0.0020028648 -0.0045926017 -0.0027356886 -0.003453526 -0.00043669002 -0.004326385 0.00091499323 -0.00032271032 0.0025408245 -0.0053335126 -0.00014957332 -0.0032572015 -0.004150761 -0.0022039195 -0.0006202871 0.0051555913 -0.0055555673 0.0046890313 0.0033245326 -0.0032982884 3.9570434e-05 -0.0038724428 -0.0033328088 -0.0019997403 0.0032544872 -0.002129442 -0.0033462604 0.0026880498 0.0023738914 -0.0046857535 0.0019635009 0.0002496925 -0.0016972979 0.00365582 -0.003184412 -0.001341886 0.0043815183 0.0034793569 0.00041581376 -0.005162781 -0.0055602356 0.0023935952 -0.000677928 0.0026057733 0.0012780667 0.0015115667 0.00014162737 0.00073246734 0.0006483632 0.0018217458 0.0045164824 -0.0019433948 0.000103379396 -0.0038926564 2.2614875e-05 0.0004874697 0.00025034687 -0.00065981754 0.0048547946 -0.0017739076 0.0026591965 0.0023668152 0.00030284707 -0.0013118734 -0.0004178047 -0.0029995206 0.0043551284 0.0021622784 -0.003258985 -0.0035880357 -0.0012533836 -0.0016889323 0.004658703 0.0037358233 0.0049457196 0.0034696169 -0.006385774 -0.0023439054 0.00091586006 -0.0035328357 1.7971349e-06 -0.0011052876 0.0040393993 -0.0002771852 -3.0160705e-05 0.0018377111 0.0034323747 -0.0015964691 -0.0032255824 -0.0025105698 -0.0035952795 0.0029579015 0.0007568992 -0.0047108694 0.0021100047 -0.0025246036 -0.0025540146 -0.0013894717
府 0.005546025 0.0034010252 -0.002647075 0.00041620122 -0.0031091594 0.00029178732 -0.0010299213 0.0033504106 0.0031652465 -0.0040130354 0.0024053443 0.0011355887 -0.0056013707 0.0013940311 -0.0013380127 0.000665783 -0.0036391073 0.006048306 -0.004298778 0.0046864585 0.0009395138 0.0021541337 0.0023965903 0.00083705364 0.002454904 0.0021030244 -0.005247929 -0.0006083396 0.0015456975 -0.004713264 -0.0017866492 -0.004290073 0.0023127473 0.0030726586 0.0009612729 -0.0011104266 -0.003871791 -0.0061713173 -0.00274494 -0.0056723384 0.004450062 0.0007616635 -0.0019778046 0.0031388476 -0.0018954364 0.003989993 -0.0008077021 -0.0016848048 -0.00028179918 0.0031309042 0.0053056167 -0.0010073505 -0.0004500833 -0.0066241464 -0.00026368385 0.0021245792 0.0037625087 0.0022722841 0.00020797986 -0.0026469291 0.003276481 0.0016140449 -0.0024600434 -0.0022904382 0.005828009 -0.0016367902 0.0046492154 -0.0011072209 0.0034871602 0.0030793773 0.004168008 0.0037526763 -0.0045899004 0.0040576984 0.0004632856 0.004021236 -0.003461824 -0.00059800607 0.0033906167 0.0024918695 0.0023021372 0.0002975257 0.0017084669 -0.0004651446 -0.0024898928 0.0025797277 -0.004786339 -0.0028510995 0.0070501044 -0.002675001 -0.0047882493 0.0001901397 -0.0032799614 0.000744228 -0.002676368 -0.00018423122 0.0024296565 0.005370401 0.0015122092 -0.003322704
安泰 -0.00092302606 0.0018791688 -0.004211155 -0.0043026246 0.003811963 0.0003002297 0.002299665 0.0039659124 -0.00072892685 -0.0020510575 0.0028662533 0.0010108495 -0.0036670812 -0.0044499044 0.0019287602 -0.003069053 0.0011861062 0.0046188994 -0.0009194767 0.0029236139 -0.0024465548 0.0042635044 -0.0028506105 0.0006438633 0.0056543043 0.0028162475 0.0024490757 -0.00298049 0.004141664 -0.0029254667 -0.0016974814 0.00014033359 0.00011887447 0.0032333627 -0.0004163756 0.0009676208 0.0012224446 -0.002554931 -0.0033452697 -0.0016979277 0.00079733145 -0.0042339233 -0.0058653033 0.002237761 -0.0022567867 -0.0025233615 0.0033568693 0.00071217224 -0.0016326816 -0.004873294 -0.0010859228 0.004408626 0.00028752035 -0.00061143783 0.003045879 0.001091358 0.0032261175 0.0035307764 -0.0039756764 -0.0033499564 0.0031852769 -0.0032097944 0.0045355377 0.0040069516 0.0024357392 0.00034586486 -0.0046668784 0.0041304613 -0.0045927037 -0.003434503 0.0024296753 0.00560555 -0.0010114376 0.003644507 -0.00076829304 -0.0001564122 -0.0034628334 0.0054793363 0.0016287874 0.0025264418 0.0032718047 -0.0039470345 -0.0041904715 0.005436179 -0.0058003087 7.079904e-05 -0.0063864575 0.0037975805 0.005711574 -0.0051989 -0.0007984632 -0.0011964701 0.00019746613 0.0021595838 0.001612201 -0.00033520584 0.004873985 -0.004261208 -0.0032987578 -0.004561893
计算 6.541081e-05 7.895926e-05 -0.0023443722 -0.0029229806 0.0041248933 0.0024131802 0.0027828512 -0.002610582 0.0042387224 -0.0048917276 -0.00025981187 0.0013121822 0.0005442554 0.003919133 -0.0015436392 -0.00023723175 -0.004596598 -0.0021712934 -0.005532349 0.0036806925 -0.0006849858 -0.0047409763 -0.0016443633 0.003977489 0.0029578512 0.001067551 0.001873373 -0.0009753311 0.003012563 0.00075946434 0.0007673559 -0.00554148 -0.00266034 0.003468379 -0.003310313 0.00040459976 0.0015916964 -0.004627174 0.0034812456 -0.00026046048 0.004045379 -0.0055623217 -0.0055676633 0.002633652 0.000841043 -0.0046073124 -0.006010736 0.004145661 -0.0043020896 0.0028091746 0.0024373024 0.0007999908 0.004381259 -0.00037616023 -0.0051673185 -0.0017999497 0.0047217053 -0.00386852 -0.004424965 -0.0023318364 -0.004517457 0.0015971424 -0.0016696382 -0.0010409859 0.0047143474 -0.00034977985 0.002261629 -6.865225e-05 0.0024611778 -0.00086866284 0.0012301343 -0.0022702902 -0.0030480113 -0.0035538839 0.0030055055 0.0048281346 0.0013972109 0.006261104 -0.0042994865 0.0030490346 -0.0025499056 0.0033437777 0.0019129998 0.00087466923 -0.0002485641 -0.0014910335 -0.0029556982 0.0021251773 -0.00028511902 -0.00090177485 -0.0052678306 0.0046438593 -0.005306057 -0.0006488847 -0.0020058143 0.0045063123 0.0031397552 0.0034756495 0.0055932733 0.0043629943
单位 0.0015592087 0.00033850237 -0.0032356929 -0.00393817 -0.00082908967 -0.0028494 -1.6764601e-05 0.00037327272 0.0017223462 0.0010214682 0.004328716 0.00021909953 0.0032686198 0.0002103587 0.00033191426 -0.0021243207 -0.0010867313 -0.0011798842 -0.005126628 -0.0032956642 0.002260654 0.0001024239 -0.002596428 -0.0010673531 -0.0024281207 0.0029429498 0.0038172062 0.004518065 -0.003401756 0.0036889277 -0.0018656609 -0.0024847682 -0.0030658594 0.004048532 -0.0044432753 -0.0023131764 -0.0016654007 -0.0047840704 -0.0043290085 -0.004155314 -0.0038017756 0.000861457 -0.0059689214 -0.0019693573 -0.0041603483 -0.001983181 -0.0005783365 0.0031268375 0.0015205117 0.0011100989 -7.457472e-05 0.0004305732 0.0022895744 -0.0023561902 0.0034142053 0.0030494852 -0.00065203913 -0.0023484097 -0.005052112 0.0043145684 0.001821406 0.004675502 -0.0017974788 -0.0025403916 -0.0017099854 0.0012172916 0.0019396252 0.0014335779 -0.0030175103 -0.0037684909 -0.000121316574 -0.0007568698 0.004505964 0.0017500301 0.0024351461 0.0022473068 0.0048167263 0.0032428622 -0.002601258 4.282257e-05 0.0004101128 -0.0006563515 -0.0029145256 0.00039343248 0.0014604187 0.003033025 -0.0064130253 -0.0023867053 0.0053042113 -0.004117127 -0.0024855214 0.0043410896 -0.005005438 0.0010102368 0.0012561056 -0.00029197728 0.0010832413 -0.0035064064 0.0043623666 0.0039053652
几何 -0.004476187 -0.002298239 0.0047534457 -0.0001494662 0.0013878226 0.0037771103 0.0029609362 0.0025134585 -0.0037685225 -0.0034758605 -0.002789477 -0.003910771 -0.00011809994 0.0010812925 -0.00037354926 -0.0020066781 -0.00032211436 0.0041452367 -0.0039443616 0.0026325418 -0.0044517573 -0.0005265495 -0.0010080553 -0.00067706127 0.0015930445 -0.0010797076 0.0011725273 0.0033302566 0.0033123796 0.0033199335 -0.00020023622 -0.0017936307 0.0026375656 -0.0009009958 0.0011532743 0.00043769262 0.0032767747 0.0015504733 0.0037901022 -0.0044555212 0.0027960532 0.0016567204 -0.0064378036 -8.424535e-05 -0.0046873935 -0.00037491796 -0.0049428768 -0.0032279207 0.004808515 -0.004763509 0.004485793 0.0026963754 0.00036526468 -0.0038171452 -0.0038015507 -0.0004204211 0.0010860385 0.0033619378 -0.0046427357 -0.0018020147 -0.0023228535 -0.00017664499 0.0014787456 -0.00084223715 -0.0010700654 0.0013679761 0.0032720119 -0.002606373 0.0031485886 -0.0037561583 -0.0010261514 -0.0034228093 -0.0051694857 -0.0010263467 0.0023328636 -0.00239664 9.7873126e-05 -0.0018647946 -0.005528615 0.0037783687 0.0011745963 0.00205337 0.0021199763 0.0020486834 0.0007931699 -0.0014187034 -0.0066169603 -0.0021690566 0.0035845453 0.0029374675 0.0025767835 0.0014613196 0.002148676 -0.0041052704 -0.00096919783 -0.0022037458 0.0008290785 -0.002011775 0.0029729006 -0.0040462576
系统 -0.0012323969 -0.003164031 0.0007591204 -0.0013810054 0.0035318201 -0.001344331 0.00479586 -0.0032007184 -0.0021192464 -0.00280343 0.00027315202 -0.00502513 -0.0022491561 0.0038979931 -0.004317438 -0.00021665494 0.0040240814 0.004737923 -0.0045866044 0.004915515 -0.0025955609 -0.0030271667 0.0022584873 0.0035452116 -0.00028368825 -0.0021251638 -0.002177584 -0.0014888914 0.0038680825 -0.005497626 0.0055650147 -0.0015763661 0.0038998208 0.00054716744 -0.0018044112 0.0027607996 0.0007951744 -0.0021288765 -0.003731673 -0.002461591 -0.0016764794 0.0032121183 -0.0038628748 -0.0033913546 0.00018847447 0.0020578075 -0.0010545851 0.004002781 0.0031263018 -0.0011981083 -0.00032954058 0.0044775982 0.00078844494 -0.0035354581 0.0005931824 -0.0025562462 -0.0023159857 -0.0019921432 -0.0011395104 -0.0038834547 4.1498683e-05 0.000488817 0.0032611769 0.0010925677 -0.0005277384 -0.0005808516 -0.0034085645 -0.0008678804 -0.0045836587 0.0023314252 0.0025772399 0.0058350014 -0.0020023433 -0.0039143413 -0.0029299646 0.00530478 -0.0005155022 0.003758436 -0.0043379697 0.004177654 0.0017738454 -0.003941156 9.3883726e-05 -0.0035718752 3.3056003e-05 -0.0013674693 -0.004112652 0.0031336804 0.003232373 -0.00019617855 -0.0063318685 0.0034823003 0.003361154 -0.0058950265 0.0024588867 0.0020211085 0.0041184127 -0.0032986668 -0.001716502 -0.0038269234
提供 -0.0040778588 0.0009779668 -0.0005052641 0.0026778064 -0.00031782698 -0.00087289955 -0.0025255817 0.0033095682 0.004304508 -0.00016472905 0.0053312443 0.0012013324 -0.0055598267 0.0042927107 0.003703923 -0.00033450403 -0.0013585452 0.0018596125 0.0038734504 -0.0020202794 0.0021250192 0.0016367672 0.00036822452 0.005607452 0.0049517825 -0.0038943507 -0.0052422616 -0.0020809332 0.0019943453 0.0031484691 0.003773892 0.002878106 0.0039685178 0.0036948263 -0.0003236884 -0.0014024641 -0.004671985 -0.002463243 0.0035644576 -0.0010579667 -0.0049183704 0.00055833114 -0.0034369754 0.0017972263 0.002898298 -0.0046683764 -0.0013688847 -0.0041386453 -0.0040667076 -0.0016818867 0.0034232147 0.003264177 0.0065130345 -0.004462403 0.00303854 0.0012169381 0.0049714465 -0.0029140988 -0.0014434728 -0.0013153882 -0.0008031778 -0.002883319 -0.0028208653 0.004472105 0.0050104647 -0.0020790445 -0.0021486315 0.005071947 0.00084191933 0.0019294239 -0.0054415166 0.004097141 0.00021963115 -0.001957058 0.0018922166 0.0055433805 0.0019517419 0.0035671412 -0.0011539686 0.0014784873 -0.0004705551 0.00042163557 -0.00083217444 -0.0018638741 0.0014090914 0.0012311909 -0.002786715 0.003233325 0.007820527 0.002369249 -0.0064858105 -0.0033533403 -0.003989149 -0.0013051766 -0.003883093 0.00492586 -0.0037173645 -0.0027895127 -0.0027962497 -0.0010499246
重庆 -0.0026142295 0.0055619124 -0.0034329183 -0.0032362987 0.0049255197 0.0019981456 0.0049218866 -0.00075805554 0.0004497781 -0.0013262692 0.0025811817 -0.0007520676 0.0041940557 -0.0007161428 0.0024340046 0.005137908 0.0048391377 0.0040826662 0.0002565276 -0.00018443126 -0.0011938383 -0.0036061 -0.0036678354 0.0052069253 -0.0011343558 0.0045664674 0.0017992902 -0.005496754 -0.0046176645 -0.001800367 -0.0043780627 -4.6316585e-05 0.0011319567 0.0010125847 0.0034974732 -0.0049029253 0.004018006 -0.0027050646 -0.0019217569 -0.0029545787 -0.0021720733 -0.0035043603 0.003224612 0.003965212 -0.0057270103 -0.0018611803 0.004389923 0.0010022132 -0.0013101475 0.0040056305 0.0012869479 -0.0033182164 0.0048717456 -0.0017723208 -0.0028516604 -0.0017665675 0.00375174 -0.005059547 0.0044553517 0.0041104914 0.004987347 0.005452228 0.001198522 0.0044543543 0.0061187698 -0.0026262566 0.0014787116 0.0034303807 0.0017846075 -0.0015106658 0.0044387905 0.0056091547 0.0027907712 0.0015789781 0.00039466022 0.005064807 -0.0010345316 0.0058027366 0.0028244767 0.0008118576 0.0066118753 0.00076211785 -0.004472184 8.087809e-05 -0.002952633 0.00048257262 0.0034255923 0.0026344592 -0.0018013048 -0.0043246103 0.0019363401 0.0008535709 -0.0013693492 -0.0039564483 0.0017307425 -0.00033881978 -0.0019275519 -0.0021627252 0.0010944542 0.0010845697
号 -0.002106389 0.0058502886 0.00096166745 -0.0038177269 0.000888084 -0.0024069096 0.0008256744 0.0030283954 -0.0036335848 0.0020941885 0.0007638645 0.0007536573 -0.001611659 0.0016995576 -0.0009330665 -0.0044652196 0.0005472536 -0.002599549 0.0024314348 -0.0031391578 -0.0035880737 -0.0010887233 0.0034166567 0.002691964 0.0024611442 -0.0007035507 0.0040072994 -0.002130919 -0.0037616214 0.0030827841 -5.8472502e-05 0.001115234 0.0009570625 -0.0005190855 -0.0047096466 -0.0051115025 0.005373901 -0.000516077 -9.6448886e-05 -0.0010151583 0.004450438 -0.005971824 0.001287215 -0.0037406108 -0.0012779359 0.003026097 -0.0012350539 0.0039707376 0.0025000107 0.0017319734 0.00031695204 0.0021324467 0.005321974 -0.004244541 -0.0053621074 -0.0024117196 -0.00046231286 -0.0021268677 -0.00369426 -0.004197206 -0.0041406145 0.0049553034 0.0057985946 0.00097610144 0.0011610634 0.00011031365 -0.0014340689 0.0021388226 -0.0037523897 0.0036366277 -0.0013984344 0.005434136 0.001786208 -0.0015519819 0.00074726535 6.701432e-05 -0.0007586118 0.0011356567 0.00060098036 0.0038784868 0.0017225338 -0.003396312 0.0010508287 0.0017356119 -0.0025038 0.0007267079 0.00017187707 -0.0025932707 0.006106653 -0.00510158 -0.005062055 -0.0038094965 -0.003599757 0.0011701875 -0.0012743345 8.20491e-05 -0.0006666147 0.0013961046 -0.0020290825 -0.0021709772
站 2.8970988e-05 -0.002227238 2.707448e-05 -0.0029628726 -0.0020545146 -0.0022579266 -0.0031557977 -0.0047001773 0.001861724 -0.0002875941 0.0052552596 0.0021642246 -0.003160934 -0.0039964956 0.002730946 -0.0043083583 -0.0014469571 -0.0010667286 -0.0005256949 0.0030052587 -0.0048395246 0.0011784855 0.0038136833 0.0012285822 0.0021631697 -0.0045720846 0.002691732 -0.0008144002 0.0009291254 -0.0027518503 0.005057638 0.0036271643 0.0048680115 -0.00293155 -0.004827208 -0.0036729411 0.005037028 -0.005563878 0.0034339847 -0.0052021453 -0.0031305042 -0.0055288686 0.0026121498 0.0005301403 -0.0015978373 -0.0011415518 -0.0052755214 0.0010727843 0.0045334785 -0.00041350548 0.0025830457 -0.003268048 0.0011720273 0.0010621946 -0.0058701388 0.0038499183 0.0009068493 -0.0047687064 -0.0003447346 0.0027239649 0.0035459683 -0.00063907355 0.0023161224 -0.00020008103 0.00653806 0.002139942 0.0027389806 0.0038706549 0.0013697576 0.004842126 0.0006556348 0.005698883 0.0025962165 0.0016501966 0.002272388 0.0032070433 -0.005206836 0.0026543236 -0.0012877559 0.0006960494 0.00063567766 0.004152344 0.0018726395 0.0032428382 0.004197113 -0.0045301137 -0.004876373 0.0035071818 0.004845056 0.0037733929 -0.0029041434 0.0009525941 -0.0010639704 0.0038185376 0.001067899 0.0026567376 -0.0005851346 0.0024861018 -0.0041755857 -0.0016343084
超越 0.0003161232 0.0041660755 0.0030709226 0.0018324112 -0.0009396088 0.005225596 -0.0029016908 0.0017114173 -0.0038014874 0.0008779059 0.0041842856 0.0025090107 -0.002131893 -0.0022563722 -0.0024153 0.001738177 0.0050775916 -0.003652728 0.0038596455 -0.004096401 0.0018109166 -0.0022618102 0.002831451 -0.003907594 0.0008760418 -0.0008101506 0.00015618066 -0.0023776446 -0.0011854674 -0.0004214383 0.004891927 -0.005204706 0.0015091561 0.0030604384 -0.0025329592 0.0025325364 0.001370976 -0.0039059692 0.004981514 -0.004090749 0.0027842794 -0.0006718016 -0.0014162941 0.00011287041 -0.0024056197 0.004517074 0.0017001188 0.0048063286 -0.002005942 9.349115e-05 0.0021020463 0.0013849239 0.005261464 -0.0048220763 0.00034882774 0.0043496895 -0.0022311958 -0.002385973 0.00026858877 -0.0017882127 -0.0026426786 -0.0037520702 -0.0038357137 0.0055173105 0.0024599212 -0.0035544967 0.0021383758 0.0010708366 8.026324e-05 0.0035308513 -0.0007085872 -0.003299472 -0.0051759374 -0.0044779982 -0.0041111605 0.003930887 0.0031275293 0.002128397 -0.0007461721 0.0006072172 0.0011203983 -0.0048590605 -0.0014287132 0.00411545 -0.00547149 -0.005116086 -0.0050594485 -0.0022996815 -0.0006736332 -0.0031021356 -0.0023336587 0.0021674589 0.002720918 -0.0010877938 -0.0028591552 0.0039070137 0.0019434551 0.0012410347 0.0044850074 0.0019573413
科 0.00097484066 0.0011781037 -0.0011393394 0.0017783914 -0.005087216 -0.00042972673 -0.0042756344 -0.003497148 -0.0040247464 0.0030889541 0.0029825429 0.0041046306 -0.0046561486 0.0030927546 0.0030113775 0.0012095295 0.00328326 0.002430418 0.002939829 -0.0030417321 -0.0050276313 0.002040379 -0.0055180485 0.00038674162 -0.0011229151 -0.00072835054 -0.00054790545 -0.00495903 -0.0018705865 0.004247951 3.1373085e-05 -0.0046383245 0.005202085 0.0004376821 -0.0008450544 -0.0010831204 0.0012837795 -0.002671103 -0.002256915 -0.005324412 0.0012479598 0.0003325367 -0.005501782 -0.0042738877 0.00054753333 0.004883948 -0.00096142106 -0.0010129543 -0.0027619575 -0.004111383 0.0042904615 0.005197127 0.0023915698 -0.0052090306 -0.00012396314 -0.001711703 0.0040850276 -0.00416852 -9.9231635e-05 0.0038483315 0.0016591129 0.00018331839 0.00033389233 -0.0014403429 0.006787022 0.0029147074 -0.00089053647 0.004319189 0.0031116172 0.0017561438 -0.0010428817 -0.0022418657 0.0023244622 -0.0022838318 0.0039508925 -0.0020618974 -0.00085245876 0.006908954 -0.0042713657 0.00017250607 -0.0019637065 -0.0050292606 0.0051374882 -0.0044921846 0.0006179676 -0.0017152351 -0.0072862627 0.003020721 0.0040898565 0.0014672466 -0.00407404 0.0001655853 0.00314615 -0.0058292104 0.0016046219 -0.0022956736 0.0027173061 -0.001864336 -0.0025494131 0.0014520014
证明 0.004670261 0.0045523415 0.0020133217 -0.0046628625 0.0019362348 0.0021076214 -0.0041261762 0.0018144423 0.0041743442 -0.00046674104 0.0036257813 0.0007328089 0.0017235887 0.0022293385 0.002077583 0.00029299626 -0.00063829747 0.0025078473 0.00408348 -0.004106166 -0.0045198854 0.0027147247 -0.0016963369 0.005653191 -0.0014591371 -0.0047522155 -0.005496032 -0.0015584468 -7.2996016e-05 -0.004709329 0.0037259448 -0.0014155708 -0.0036958351 -0.001921632 -0.005799465 -0.0033435703 0.0022031844 -0.0030253648 -0.0044420552 -0.00023824352 0.0046124645 -0.005461232 0.0002549264 0.001461797 0.0031811679 0.0015573674 -0.005964339 -0.0027452859 0.0017860243 0.00279052 0.00068224367 -0.0017859426 0.0012167251 0.0021961203 0.002704848 -0.0039597475 -0.00415623 -0.0030966445 0.0010011764 0.0013339631 -0.0015445931 0.0046418286 0.004171486 0.0022552512 -0.0023835406 -0.0011405587 0.002745061 -0.0013455544 -0.0033484667 0.0004838043 -0.002351703 -0.0015738184 0.001005603 -0.0014739675 0.0046734544 0.0038120167 0.0017784328 0.0026273264 -0.0018983326 -0.00084009924 0.004336542 -0.0039085974 -0.0016915343 -0.0036349704 -0.0045462204 -0.001401487 2.357693e-05 0.0018784362 0.005611245 0.0023124367 -0.0010991356 -0.0025875843 0.0023929253 -0.0041207937 0.0016070409 0.001315288 0.00052132807 -0.0031806314 0.00445895 0.0018828808
包含 -0.0042161183 0.0022179107 -0.0022349637 -0.0017130668 -0.003582117 0.0020142857 -0.0009860921 0.0016509311 -0.0017613533 -0.001155193 -0.0026732807 -0.00049382396 -0.0023461457 0.004992325 0.0035151078 0.0037720827 0.0011504736 0.00032280904 -0.0013298853 -0.000841611 0.0031117543 0.0013538812 -0.0055536856 0.0026655344 0.002959832 -0.00224621 -0.0045948997 0.00065880694 -0.0010241491 -0.0019745843 -0.0010119923 0.0026974473 0.00025024085 0.0035365098 -0.004084876 -0.0012020791 3.0548777e-05 0.00033145308 -0.0031890552 -0.0010241091 0.00019885143 -0.0036583382 5.227484e-05 -0.002044161 -0.0023402332 -0.0018376249 -0.00299658 0.0035470997 0.0005344011 -0.005340233 0.0009968515 0.00065062783 -0.00196747 0.0027779657 -0.0054602325 -0.0046040677 0.0029666058 -0.0033542104 -0.0024796266 -0.0042486186 0.0039465395 -1.4463734e-05 0.0039003931 0.0010749435 -0.0034801138 0.0043345396 0.002943619 0.003815664 0.0048470157 0.0005947839 0.0028319731 0.0028412538 0.003439754 0.002420898 0.0028610865 0.0052335174 0.0035173788 0.006162924 -0.0022468064 -0.0034295039 -0.0038437305 -0.0041830814 -0.002257908 -0.00400662 -0.0023906664 0.0022061777 -0.00030853317 -0.0013939767 0.0056056846 0.0047266693 -0.0028721353 -0.0041768462 -0.000686047 -0.0043637645 0.0040910533 -0.002885411 0.004530931 0.0039179684 0.0057013994 0.00097159704
担任 -0.0024434736 -0.003252255 0.004692234 0.00052184326 0.0016835975 0.0014254317 -0.0026820104 -0.004976095 -0.00194609 -0.00059315533 0.0015317302 -0.0041665607 0.0037269553 0.0012093047 0.004846267 -0.0032009291 0.003273426 0.0043495824 -0.0008224051 -0.0030520947 0.0022867222 -0.0015918792 0.0014013076 -0.0024008567 -0.0006558753 -0.0021121637 0.00049740623 0.00010344835 -0.005071561 -0.00023859575 0.0052503585 -0.0022206595 0.0029956137 0.004874291 -0.0056050722 -0.0029632575 0.0035679217 -0.0005396067 0.0031132635 -0.0002567269 -0.004582048 -0.0011516586 -0.0021308204 -0.00056843925 -0.004184378 -0.0006510709 0.002542719 0.0046252967 -0.0025603645 -0.0043409057 -0.002287586 0.002063802 -0.0013227409 -0.005588054 0.003251873 0.0010739992 -0.00024282906 0.0016197162 0.0019461961 0.0011568115 0.0018658438 -0.0025024319 0.0059065777 0.0008056938 -0.0023641745 -0.0012956612 -0.0050259293 -0.0028601089 0.0026390315 -0.0027742262 -0.002727896 -0.0027728593 -0.004040669 0.0050324337 0.0024427362 0.0015413377 0.0035757287 -0.0023167017 -0.0025374247 0.0003720298 -0.0004890636 0.0042674127 0.00073914696 -0.002433602 -0.005509494 -0.005228748 -0.0011131783 0.0043482366 0.0064053526 0.001332005 0.002491908 0.0018605259 0.0027141322 -0.002381714 0.003993807 -0.0044399914 0.0021865654 0.0039003799 0.004931971 0.0048423475
西班牙 -0.0040501645 -0.0041422113 0.0047299215 -0.003939642 0.0003532195 -0.002236093 -0.0005425996 -0.0024836615 0.0027799061 -0.0019803368 -0.003928309 0.0015380064 0.0016851146 -0.0030437899 -0.0023023908 -0.003589717 0.0021523805 -0.00362435 -0.00437883 0.0023821925 0.0035569102 -0.0005112285 -0.00011697592 -0.0030645009 0.0047376435 0.0013247407 -0.0022847976 0.00498198 0.003891794 -0.0027177872 0.0053405697 -0.002465117 -0.0005017555 -0.0012271408 -0.005982602 0.0009566771 -0.0045193485 0.00077167066 -0.0048182555 -0.003348677 -0.003573227 0.0018065372 -0.002812292 -0.0033676988 -0.0002573506 0.0017872191 -0.00086126575 -0.0035369012 0.000310609 0.0023097736 -0.00013635513 -0.0033458874 0.002193812 -0.004037995 -0.0052639074 -5.4779965e-05 0.0013380141 -0.0009521598 0.004027412 0.00025885543 -0.004021438 0.0025729467 -0.0017118617 0.0042198715 0.0047202404 -0.001666099 -0.00041856902 -0.0041380553 -0.0035878937 -0.0033689134 -0.005664073 0.0053438614 0.0020578976 0.0028805027 0.0021089069 -0.0017244521 -0.002118143 0.0062661003 -0.0054377886 0.0003079884 0.0026322852 -0.0007786934 0.003970228 -0.00370362 -0.00023423585 -0.0001945905 -0.0055150455 0.003937886 0.0019565164 -0.0015185772 0.0007731867 0.002805352 -0.004100161 0.0025867168 -0.0032633075 0.0012216598 0.0018509738 0.0048586964 -0.00020276023 -0.0027563286
新闻 0.0049743964 -0.0015712118 0.000117709715 0.0031640602 0.0034665307 0.0050993976 -0.0039406004 -0.003129602 -0.0032717125 0.003929357 0.0012301377 0.00210685 -0.00092582195 -0.0015777925 0.0031331212 -0.0003950012 0.0053454484 -0.00086284365 -0.003069982 0.002379068 0.0030193212 0.00044565735 -0.0045749806 0.00284735 0.0031353624 0.002066199 -0.0026601832 -0.0015236771 0.0012198826 -0.0003338776 0.0018205093 0.0020530361 -0.0025820697 0.0018893786 -0.004985814 0.0026994247 -0.00073973334 -0.0026587427 -0.0029238476 0.00018174348 -0.00022208902 0.00344224 -0.0015265242 0.0019807173 0.00258239 -0.004212571 -0.005284543 0.0021024977 -0.0013810205 0.0038070541 0.0054209903 -0.0016790726 -0.0022614843 -0.0022141978 0.0024921403 0.0007389078 -0.0029127765 0.0014191852 -0.0010598575 0.0024262432 0.0042342604 0.004914541 -0.00021949994 0.0048150616 -0.0023340234 0.0013010514 -0.00030301968 -0.002584152 -0.0041070157 0.0051648947 0.001698802 0.000675396 -0.003787138 0.0004309699 0.0025166753 -4.4953256e-05 0.0010533885 -0.001328049 -0.0052211382 0.0037366722 0.0033370233 -0.003057072 -0.0005141984 0.0017052012 0.0018835929 -0.0013860416 -0.0027348162 -0.0031899763 -0.00022465909 -0.0052188095 -0.006332021 -0.0021781297 -2.1216509e-05 -0.0020824901 -0.00036555875 0.00023030091 -0.0036815326 0.0026078748 -0.0028891684 0.00046528695
四川 0.003249798 -0.003949585 -0.0023189872 -0.0024577724 0.004807903 -0.0033479542 -0.0018830987 0.0023923533 0.0039725224 0.0030493713 -0.0042325696 -0.0036940177 0.0029594935 -0.00040397723 -0.0009240485 0.003277725 0.0012545496 -0.003277143 -0.0058634505 0.002517163 0.0015649222 0.0041749394 -0.002804432 0.0031620795 0.00053432595 0.0029538386 -0.0021622316 -0.0046804515 0.0028923175 0.0037813575 -0.0029343145 -0.0050234427 0.0049697384 0.0034081133 0.0033835624 -0.0035196508 0.005230981 -0.0030297355 -0.005157391 0.002398115 0.00080953364 -0.0042600865 0.0007826536 0.00043909717 -0.00014823112 0.003448559 0.001685722 -0.0017927156 -0.0017685966 -0.0036608698 -0.0038732153 -0.004135295 0.0025652167 0.002133508 0.0010056465 0.0019918177 0.0016471685 -0.0039017624 -0.0029107262 -5.978625e-05 -0.003956812 0.002169285 -0.0027918012 -0.0013358014 -0.0018256275 0.0024068116 -0.0035479933 -0.002059056 0.0011524325 0.0010245419 0.0014743375 0.0032699422 -0.0037180057 0.0019264265 -0.0039444673 0.002097706 0.0028336733 0.0013631507 -0.0033506548 -0.0040343846 0.0030551576 0.0021320898 0.0017685252 0.00063451234 -0.0033826327 0.003042454 -0.0060866955 0.004870999 0.0023549085 -0.0034044322 -0.0058727376 -0.004790405 -0.00050875096 0.00043606458 0.004777754 -0.003929223 0.003173816 0.0023286901 -0.003217178 0.004140684
铜梁县 0.0011742857 -0.0038838955 -0.0031651624 -0.005087074 0.003945111 0.003000742 0.0033608745 0.0038420146 -0.003324652 0.0033438331 -0.0033322815 -0.0037829156 -0.0001744601 0.0019293019 -0.00044818418 -0.0014491729 0.0013284023 -0.0022008708 -0.0029708059 -0.0007085253 0.002708141 0.0039774277 -0.003923006 0.0060457755 -0.0022966687 0.0018002185 0.0012597587 0.0037167184 0.004314661 -0.0032690775 -0.0016831115 0.0010087485 -0.0007001184 0.005109547 0.0030755424 0.00279152 -0.0024527048 -0.0059739617 0.0002344419 -0.0045706453 -0.0011185366 0.0014011496 0.0010262313 0.0042782095 0.0008280806 0.0030276251 0.0013590681 0.004832287 0.0043041273 -0.005062652 -0.0037179263 9.835515e-05 -0.0020005594 -0.0065825423 -0.0025021012 0.0038343936 -0.0007098724 -0.0029841866 0.0020516377 -0.0033588207 0.0043178713 -0.003149173 -0.0003977396 0.0026260652 0.0038783303 0.00057507306 0.001554177 0.0057167504 -0.0038257714 0.0020570008 6.032105e-05 0.00087573525 0.0033730615 0.005554635 0.0023388425 0.006509987 0.0027447268 -0.00081642537 -0.0019689954 0.00024627967 0.0044211866 -0.002099224 -0.00041576076 -0.0049133697 -0.0011196713 -0.0023856563 0.001135283 -0.0032459837 0.0040274994 -0.004369008 0.00091085664 -0.0047653564 -4.7372498e-05 0.0019572908 -0.0010961986 0.0046083806 -0.0015990414 0.0049156887 -0.00043003538 -0.0045374483
定向 -0.0016304983 0.005436528 0.0016066021 -0.0012649609 0.0037275292 0.0027451664 0.0044291792 -0.0055224053 0.0014517788 -0.0015747374 -0.002474856 -0.004223128 -0.0058922106 0.0021798846 0.0010260975 -0.002310354 -0.0034835653 0.003221779 9.122188e-05 0.0057496848 -0.0023921023 -0.005921781 0.00050095026 -0.0012259434 -0.001459656 0.0038169394 -0.0037647036 0.0013213573 -0.0017520172 -0.00037625033 -0.0018563455 -0.0013859383 0.0020895863 -0.002675635 -0.0039222557 -0.0059431866 0.005460755 -0.006545685 0.0043404675 0.0015442609 0.0019428125 -0.00014523078 0.0028733658 0.0044230935 0.0023562824 0.0026274077 0.0032312882 0.0032198273 -0.0005749683 -0.0055668354 -0.002635325 0.004773303 -0.0028614718 -0.006371709 0.0013632462 -0.0011792149 0.0024122973 -0.0015089321 0.0013944961 0.0020805711 0.0056487652 -0.0014318259 0.0051120054 0.0017977158 0.0020713157 0.005706492 -0.0054686028 0.0044226567 -0.00040872447 0.0008916449 -0.006116873 0.0025240856 -0.002016341 -0.002232258 -0.002832501 0.0037880123 0.002644565 0.006779937 -0.0053283744 -0.0035988737 0.0032622572 0.004710396 0.0010573043 0.0048457766 0.0011443117 0.0020634215 -0.0030082932 0.0001417804 -7.012717e-05 -0.0006227144 0.0006670879 -0.004317104 -0.0026391947 -0.005775625 0.0045908685 0.0021834008 -0.004379613 0.002817941 0.004840413 0.0019189914
形式 -0.0020396009 0.005327182 0.0039007482 -0.0011675592 0.0020703732 -0.00022659426 0.0014548325 0.0019666003 -0.0038525534 -0.0014556324 -0.0011322876 -0.004989158 -0.0016578971 -0.0035238727 0.0026921087 -0.00054469856 -0.0025815037 0.0012246151 -0.0052936818 0.0019763615 0.0033860258 -0.002845482 0.001166635 0.0025021846 0.0012255927 -0.0019488008 -0.0018842171 0.0016915953 -0.0047290265 -0.0035262248 0.0046310793 0.0031465404 -0.0003028027 -0.004131907 0.00027255784 0.00022066286 -0.0039358987 -0.0031533248 0.0028632295 -0.0004834613 -0.0022556442 -0.0002689204 -0.0016187003 0.0047066645 -0.0023976024 -0.002874564 -0.0020180268 -0.0019923232 0.0023064236 0.0038884077 0.0025792369 0.0007396184 0.00034027925 -0.006197625 -0.002282414 0.0019188044 -0.0010579478 -0.0019136934 0.0009886499 0.0044628265 0.002270087 -0.0029394901 0.0022338296 0.003108525 8.265892e-05 0.0042002695 0.0036542015 0.003466402 -0.0026757654 0.0028066118 -0.00560814 0.0032073555 -0.005327194 0.00021986538 0.00051009346 -0.00095004146 0.0015342224 0.005454361 -0.0018090735 -0.005056869 -0.0002178207 0.0005376908 0.001137929 0.0021826162 -0.0026004885 -0.00404619 -0.0055557094 -0.004090149 0.0009595059 0.0020100598 0.0018934399 -0.0022051132 0.003736894 -0.0011213322 -0.0007993513 -0.00048206604 -0.0012251454 0.0027659037 0.0037899218 -0.0024892755
公理 -0.0004870111 0.0018851825 -9.382334e-05 -0.0027610734 0.004380096 -0.0015718245 -0.0035616192 -0.0039571985 -0.0023229148 0.0028671224 0.00290365 0.0031193912 -0.0023670704 0.00456485 0.003042019 0.0045720027 -0.00013457912 -0.0043255286 -0.003773484 0.004818334 0.00210611 -0.0013646114 0.0027864366 0.002089343 0.004428307 -0.0022140637 -0.0036667855 -0.005269615 0.0010784392 -0.0023763196 0.0051033897 -0.004790667 -0.00466595 -0.00025708412 -0.003558774 0.0030387905 0.0012842657 0.0026870216 0.0030911795 -0.002670405 0.0017692357 -0.004450294 -0.0059146755 0.0005686104 0.0029308994 0.0010212989 -0.004636578 0.0005035181 0.0051697255 -0.0032421967 0.0038420537 0.001737895 0.003956105 -0.0049218326 -0.0034497126 -0.004576772 0.0011562947 -0.002938718 0.002014443 -0.0032957715 0.0044354713 0.0019875797 -0.00015335692 0.001872182 0.004197496 0.0017666497 -0.001729062 0.0017853734 -0.002050415 0.0046210233 -0.0051432503 0.0003971653 -0.001339403 -0.0017415304 0.0040827915 -0.0037590568 -0.0009531557 0.0009730827 -0.0016242887 -0.0045301747 0.0041160295 -0.0029665283 0.0033661867 0.0044694813 0.0023871644 -0.0026043039 -0.0009081055 0.004157775 0.00014668047 0.002640014 -0.0042964006 0.00020667986 0.0011112079 -0.0056126285 0.0011002662 -0.0025801063 0.0006362701 -0.0004970272 0.0030343365 0.0031227958
家庭 0.0009918673 -0.002650326 -0.0003332535 -0.004375319 -0.0030427012 -0.0035814915 0.0014033342 0.0029421393 -0.0037692322 -0.0033040317 0.0010506142 -0.0037401717 -0.005083192 0.004494535 0.0030172807 0.0048076888 0.0048965374 0.0030573248 -0.0032320188 -0.0016136431 -0.0010000694 -0.002242202 -0.0006378595 -0.0035756738 -0.0016659928 -0.0048937895 0.00176241 0.0031691594 -0.0015794879 -0.004138791 -0.0035587598 -0.004960629 -0.0019925584 0.0029879215 0.0035430787 0.0039553214 0.0020608054 -0.0006943944 -0.003944969 -0.0042644087 -0.0017868096 -0.004907166 -0.005886106 0.0025436813 -0.004674059 0.003417926 -0.004294955 -0.0048534684 -0.0035363736 -0.00022529815 0.0029297192 0.0010452872 0.00012222484 -0.004513811 0.00046858977 -0.0026466956 0.0047916193 0.0017247605 0.0010745701 -0.0003233332 0.0049297176 -0.0035454007 0.0032479651 0.002384281 0.003487586 0.003170541 0.000815049 -0.00025309893 0.0020900266 -0.004123905 -0.0006080817 -0.0026907537 -0.00033852583 -0.00087863446 0.0050950474 -0.002600551 -0.004619158 -0.00016189877 0.0029594584 0.0035381806 -0.0016935407 0.0014490793 0.0034871856 0.0017380934 -0.0056442446 -0.0031358413 -0.0025210828 0.005418397 0.0019870326 0.0020007773 0.00014711548 0.0021671841 0.0023760858 -3.8821658e-05 -0.0040600267 0.00015452997 0.00057064334 0.002438715 0.0012003031 -0.0010125749
剌 0.004050742 0.0026638065 0.001661553 -0.0054141646 0.0035414791 -0.0029452995 0.0012038997 0.0041399845 -0.0021054405 0.0045270855 0.0030924834 -0.0017773603 0.0016784021 0.0041113193 0.0051705264 0.0025572833 0.0034024883 0.00382677 0.0011192414 -0.00036779293 -0.0045193043 0.0026662038 -0.0006926139 -0.0019273761 -0.0015247932 0.0037618799 0.0031278897 -0.00086255977 -0.0038229 0.003131429 0.0020127313 0.0027093343 0.00083389384 0.005430176 0.0040193107 0.00216615 0.004230341 -0.0030678248 0.0007418223 -0.0015740115 0.0033275865 0.000703521 -0.0034419075 0.0012834108 0.0024695375 -0.001977521 -0.003698687 -0.003223002 -0.0018034172 0.0011314111 -0.001656079 0.004155258 -0.0027067142 -0.0032327909 -0.006185764 -0.0026965826 -3.697701e-05 0.0009981515 0.0045774216 0.005140348 0.0038776516 0.0006984204 -2.3184011e-05 -0.0039293794 -0.0006214316 -0.001339989 -0.0048569376 -2.741908e-06 -0.0017023284 0.001193994 0.004159537 0.0015103709 -0.004567027 -4.0844723e-05 0.0030275888 -0.0037080005 0.0045380015 0.006308915 -0.00014915511 0.005063016 0.0024955377 -0.0046492117 -0.0019951672 0.0011816536 -0.0053861043 -0.0039353943 0.0019459958 0.002745061 0.0045634196 -0.004427969 -0.0032615806 -0.004057221 0.004986527 -0.0009265205 0.00033509618 -1.2995621e-05 0.001308656 0.0040770406 0.001973261 0.0022733854
公主 0.0052793366 -0.002655069 0.0031299747 -0.0016119003 -0.0004959823 -0.0025969974 0.0054562306 0.0037508167 0.0026359055 0.001598381 0.003941845 -3.798569e-05 -0.0018758165 -0.0009785431 0.0017705512 0.0031076767 -0.002871513 0.0013768519 0.003024149 -0.0038047752 0.0014492978 -0.0045161447 -0.0024389334 0.0016400794 0.004994483 -0.0004940084 0.0034823823 0.002028104 -0.0044224183 -0.0042776796 -0.004084657 -0.0030473052 0.0027772407 0.001961547 -0.0040186225 -0.0050426866 0.0045755096 -0.0038239334 -0.00059425994 -0.0033916335 0.0050294288 0.0022528418 -0.004793928 4.432803e-05 -0.00096896174 0.0010717853 3.6152935e-05 -0.0037145815 0.00060309644 -0.00238325 -0.003909917 0.0032441122 0.005129395 0.0031286958 -0.004223946 -0.0050290003 -0.0016344332 0.004136573 0.0016652236 -0.0047758804 0.003348351 -0.0019134185 0.0012091998 0.0032329473 0.0026716373 0.0044289725 -0.00027569482 -7.8898054e-05 0.0038144428 -0.004083974 -0.0012104722 -0.0032330875 0.0024643946 0.00088819803 0.002195741 0.0029058796 0.00074453437 0.004174074 -0.0022067982 0.0028250853 0.0032624584 -0.0048493003 -0.0044214637 0.0030514188 -0.0023034709 -0.0009493952 0.0010177417 -0.0033150287 0.0039503155 0.0032366987 -0.00168934 0.00074776204 0.0020337582 -0.0042948527 0.0056119836 0.0045060455 4.550374e-05 -0.00038484746 0.0035132805 0.0035461115
比索 0.0039187944 0.0019584787 0.0041353256 0.00038678577 -0.0041632527 -0.0046247994 0.0033869022 -0.0022315918 -0.0034144765 0.00137669 -0.0023507753 1.4983492e-05 -0.004911626 0.0047172657 -0.0036636086 0.0046020425 0.004304891 -0.00040351393 -0.0046560396 0.004334051 0.0025917345 -0.0048560444 -0.00043513824 -0.00024360105 -0.001748375 0.0048453095 0.0020015955 0.0017577132 0.0013792966 -0.0054889033 -0.0012778076 0.0007546074 0.0021043858 -0.000171753 -0.00051006983 -0.0021253363 0.0030756423 0.0008279039 -0.0035365322 0.0013241663 -0.00095095887 -0.005555683 -0.0051933043 0.004920115 0.0006763529 -0.0018305491 -0.002249789 0.0045418055 -3.66669e-05 0.0041212933 0.0011171835 -0.0016476049 0.004633656 -0.0046714824 0.0010677611 -0.00027524785 -0.0024439686 -0.0026883136 0.0035480014 0.0019290576 0.0016324708 0.003911186 0.00026078027 0.0036151868 0.0028922372 0.0037727724 0.00016474912 0.0039232085 6.128374e-05 -0.003023664 -0.002395725 0.0004013536 0.0014418969 0.003939463 -0.000833023 -0.0033455773 -0.002144085 0.00075493194 0.0011393046 -0.0020331228 0.006411951 0.0014593684 0.0049628294 0.00027601988 0.0041251704 -0.00212405 -0.00013669753 0.005104019 0.004789372 -0.004886974 -0.0040676696 0.0032136296 -0.0052150106 -0.0008987001 0.0032099742 -0.001132628 0.0025691108 0.0050089816 0.0017780196 -0.0016125723
段功 -0.001786768 0.001269383 -0.0023876238 -0.0050593414 -0.0041565485 0.0049760942 0.0034684802 -0.0020207618 0.0016967403 0.0007715738 0.003659404 0.0013076937 0.0034103387 -0.002694936 -0.0031946513 0.0045088083 0.0039157295 0.00549824 -0.003529613 0.00032216628 -0.0056101326 -0.005374544 -0.0028032756 -3.422327e-05 -0.002275178 0.0022904759 0.0014394746 0.0015273532 0.0037312326 0.0017002685 0.00027025442 -0.0040000905 0.0018603217 0.00031907184 -0.0021560797 -0.00092393823 -0.0026178088 -0.0011771695 0.00088491506 -0.0051127 0.0050705024 -0.00046896766 0.0017338218 0.00011659909 0.00447645 -0.0042876727 -2.3476992e-05 0.0012227084 -0.0019194965 -0.00046540645 -0.0015174804 -0.00293584 -0.002316032 -0.004660168 -0.003919074 0.0039560683 0.005141653 -0.0011324488 -0.0031489928 -0.0010028853 0.0048733866 -0.003132301 0.00345674 0.0013877756 -0.00036392198 -0.0005466694 0.0025286113 0.0017230172 0.0007641637 -0.002267385 -0.0016018985 -0.0033399905 -0.00087551173 -0.0018624836 0.005122839 -0.00052238506 -0.0011345843 0.0047665117 -0.00054715254 -0.0019570384 0.006875403 -0.00499398 0.0002899702 -0.001606322 0.001302614 0.0023185404 -0.001927105 0.005909745 0.0072066598 -0.0006179652 0.0009141613 -0.00063580874 -0.0014884889 -0.0031147096 -0.0022908447 -0.004896694 0.00095869665 0.0025683008 -0.0018992316 0.004113751
贮水池 0.0036990144 0.004616082 0.0014448032 0.0010460973 -0.0013843895 -0.0010267333 0.003291003 -0.0025100692 0.001611395 -0.00040592128 0.004260146 -0.0033157927 0.0010802743 0.0019175315 0.004060615 -0.0022041474 -0.0035371785 0.0018521699 -0.00020868547 0.0038369894 -0.0008829098 -0.0011540604 -0.003717306 -0.0042269356 0.0008869045 0.0031781583 0.0039533214 -0.0050131595 0.0007740485 -0.0008326819 0.0019777839 -0.0031938148 0.004391117 0.0018401428 -0.004333857 -0.00492572 0.004656929 -0.0028853551 -0.0004666714 -0.0014853909 0.0034481655 -0.00020877608 -0.0055883736 -0.00097362115 0.00094172236 -0.0053295013 0.0017242318 -0.0048683584 0.0024888844 0.0020498063 0.0030200991 0.001860022 0.004841041 -0.0058004265 -0.0061036353 0.004676745 0.0032690787 -0.0049760835 -0.004103337 0.0026011667 0.0012612167 0.003056948 -1.7031285e-05 -0.004197865 -5.1780833e-05 -0.0025802944 -0.0043653673 0.0012553111 0.0023007772 -0.0038161494 -0.0017700918 0.0042827427 0.0039937575 0.005704475 -0.002608808 0.0053774607 -0.0021674174 0.0017549015 0.0035416547 -0.0032127178 -0.0019728937 -0.0014528167 0.003625343 0.0006306601 0.0013567399 -0.0029540684 -0.0056798765 0.0020877656 0.006708921 -0.0050841165 -0.004916841 0.004573684 -0.0004197482 -0.0010232036 0.0040892335 0.00451311 0.0029201773 0.0055810506 -0.0015759824 0.0007954193
定理 0.0048072753 0.0030863057 -0.0006362275 0.0040987143 -0.0024889514 0.0030422441 0.0032287566 0.0038592485 -0.0020199216 -0.00190106 0.0025048337 0.0035672814 0.0033098937 0.0013674723 -0.0023912196 -0.0010883034 -0.0026651232 0.0031767841 0.0022282745 0.0024929328 -0.0026086257 -0.00025275833 0.0024301384 -0.0034187057 0.0024496191 0.0028056297 -0.003466621 -0.0026266067 0.004845268 -0.0030015314 -6.7639565e-05 0.0025272823 -0.0017130215 0.0041193585 0.00250577 0.0014803564 0.0028988589 -0.0027236696 -0.0013116536 -0.00078268355 0.0008956455 0.0020868026 -0.00061761774 0.004089514 0.0033680655 0.00081805506 -0.00040350022 -0.00035169665 -0.0005774692 0.003133398 -0.001163625 0.0018376207 0.0014694293 -0.004350522 -0.005622831 0.0024632572 0.0046062986 0.000927567 -0.0005056345 0.0015227421 0.0036191435 0.0032124359 0.005104584 0.0027801683 -0.0010470506 -8.444392e-05 -0.003938102 0.0004178287 -0.0032698791 0.0015437269 0.0030323225 -0.0023870328 0.0030199834 0.0031986628 0.0033430306 0.0052717496 0.0015158536 0.0015447829 -0.004445703 0.00464247 -0.0017964281 -0.0033149149 0.0044373507 0.0026005562 -0.005370455 0.003343774 -0.0008484061 0.001543302 0.0038470146 -0.003907337 0.0017384926 -0.0008839284 -0.0017955073 0.0031155879 0.0019971433 0.005036411 0.0018175441 0.0037217967 0.0051265834 0.0014694787
发现 0.0028924488 -0.00079234963 -0.0039035291 0.0039896434 0.0023611195 0.0021906013 -0.0032756692 0.0012745603 0.000798172 -0.0031354316 -6.933623e-05 0.0035474107 -0.00037421504 -0.00030257725 0.0041694078 0.0022478404 -0.0030097268 0.004007351 -0.005459116 -0.0028513887 0.002269405 -0.0051485305 -0.0015897728 0.0031146167 -0.004538449 -0.004304385 -0.0030414385 0.00048764524 0.00018640414 0.0003929393 -0.004260727 0.001870352 -0.0013090896 0.004192096 -0.00040689253 -0.00022921387 0.0049047577 0.0041837255 -0.0025359737 -0.0052145408 0.0033800332 -0.0051937937 -0.0006375718 -0.0024196205 -0.002658703 0.0034329342 0.0017988468 -0.00258335 0.000878026 -0.001680828 0.0017595189 0.0014118825 0.0022161999 0.0024483514 0.00019049994 0.0025427884 0.00023656191 0.0012639925 -0.00425777 0.0005413654 -0.0033980482 0.004202644 0.00527884 0.0014484253 -8.607317e-05 0.002202297 -0.0027746246 0.004890721 0.0016723092 -0.00023611175 -0.00394326 -0.002044468 0.0039495016 0.0019814337 -0.0026618778 -0.0028159325 0.0008337724 0.0013027156 0.0021744363 0.0034480009 0.004963304 -0.0009538309 0.0027306152 0.004221237 0.0014489528 -0.003587808 -0.00404026 -3.7191421e-06 0.0010474978 -0.0021722433 -0.0010367844 0.004317431 -0.0024127818 -0.004664429 -0.0036774275 -0.00065187184 -0.00045641023 -0.003371995 8.696986e-06 0.003322881
电脑 -0.0034571507 -0.001528357 -0.0045854067 0.0007131848 -0.0004457933 0.0009739211 -0.0022574093 0.00015176035 0.00062947423 0.00232437 0.0035032863 -0.00080254953 -0.0036829899 -0.0032035948 -0.001959047 0.0018617398 0.003381462 0.0012151926 0.0013941012 0.003973965 -0.004678545 -0.003413778 0.002812226 -0.001646178 0.0014662618 -0.0008429293 0.00070713175 0.003890435 -0.0014914158 -9.43548e-05 -0.0029064603 -0.005741307 -0.0011947533 -0.0033835755 -0.005073211 0.0025435386 -0.0025742594 -0.0007903508 -0.0032297035 -0.0042073773 0.00023788463 -0.0036550942 -0.0006753256 -0.0014124877 0.0008556496 -0.001584513 -0.002480306 0.002409294 -0.0038903838 -0.0052274056 0.0006462317 0.0047182194 0.0058734715 -0.00522938 -0.004766739 -0.00090790907 0.0031688812 -0.003256433 0.0024444999 0.0022065355 -0.0033837464 -0.0016803748 -0.00030211866 -0.0017540999 0.005307358 -0.0017404641 0.0034554054 -0.0015998258 -0.0019804272 0.0047250143 0.003408491 0.004155419 -0.0017743328 0.0036159419 0.0022619613 0.0013847102 0.0025157144 0.0015327381 0.0024997145 -0.0009654216 0.0045121694 -0.002155597 -0.004024165 -0.0017718242 -0.0043248087 -0.0024440552 -0.0057117706 -0.00010249018 0.00158802 0.003998848 -0.0032350349 -0.00030700542 0.0012933898 0.0034274405 -0.0036109784 -0.0030623605 0.00028102362 0.0002368972 -0.0023572936 -0.0046644686
高 0.00018312053 0.0017851806 0.004207775 0.000967516 0.0022858372 -0.0028529658 0.0048992094 -0.0022012596 0.0019423183 0.00034735852 -0.003739599 0.001697792 -0.005614865 0.003090414 0.004283841 0.0036603957 -0.00471302 0.0043411874 -0.0009833346 0.0011667946 -0.0034016625 -0.0054569934 0.0013334235 0.005149529 0.0053961463 0.00081732613 -3.1909032e-05 0.004111904 -0.0019303539 -0.0001230372 0.003361668 0.003178855 0.0021828162 -0.0040998096 0.00038633533 -0.0052925986 -0.0032357422 -0.0047079925 0.004210015 -0.0023793092 -0.0018052256 -0.00033712346 -0.0016032079 -0.0010837065 0.0024082675 0.002235184 0.0016599083 -0.00023811219 0.003943226 0.0033651385 -0.0014993594 -0.0040319483 -0.0006745111 0.00069381413 0.0010366649 0.0044271904 0.0040631774 -0.002968443 0.002938084 -0.0025093716 -0.003746081 -0.00019801964 0.006061954 0.003831632 -0.0020499704 -0.0011006626 -0.0033549732 0.00042141665 -0.0024296052 -0.001846638 -0.0002692615 0.00021353753 0.0046800217 0.0005200201 -0.004107384 -0.00044799678 0.0036613236 -0.0014667566 -0.00203992 0.001971548 0.004251583 0.0031488247 0.0012172482 -0.003314255 -0.0035314658 -0.005682534 -0.006245978 0.0056967703 0.0076236613 0.0014656093 -0.0060524233 0.003954372 -0.0049784672 0.0023755226 -0.00041527842 0.0012917031 -0.004261894 0.0017162818 -0.0031777069 -0.0032116135
逻辑 -0.00044675515 -0.0029158448 0.0016706991 0.0013544055 0.0046356916 -0.004852827 0.004793701 -0.0018414456 -0.0006579333 0.0039569605 0.005019291 -0.0017443532 -0.0041490034 -0.0015454817 -0.0012261021 0.0046285596 -0.0033113023 -0.00024645144 0.00070618634 0.0023542824 -0.0018221036 0.0043218466 0.00029625083 0.0045670234 -0.002044252 0.0018970105 0.0018502874 0.004724546 0.000490388 0.0045554163 0.0044326195 -0.004872825 0.0011944328 0.002951198 -0.0013422066 -0.00057168375 -0.003155675 -0.004147393 -0.004053325 0.00073085824 0.002984495 -0.00039097504 0.00030633996 0.00029045827 -0.00087705615 0.00031573392 -0.004877713 0.003988767 -0.0035309826 0.00031697573 0.0008272468 -0.0019025587 -0.001862055 0.0036530723 -0.0032247452 -0.002626784 0.002357413 0.0008239742 -0.0036992168 -0.0037605558 -0.0013584491 0.0027726071 0.0047746794 -0.0025331958 0.0010496269 0.00018344555 -0.0032794205 -0.00115475 0.0004333834 -0.00061044656 -0.005073182 0.0014742311 -0.0021438512 0.004710502 -0.0009885327 0.0042590457 0.0046641883 0.002654501 0.00010253879 -0.004322126 0.0046362802 -0.0033996403 0.0029095185 0.0013347846 -0.0006055423 0.0020980637 -0.005834818 -0.0010724772 0.0037455477 -0.004812857 -0.0039300118 0.0036556264 0.0001758304 0.0017652994 -0.002519845 -0.0008311581 0.00142374 -0.00066502346 0.0039282953 0.00010534813
描述 0.0012513578 0.0019116747 -0.002298626 0.002780956 0.0027717443 -0.0022513396 -0.0006146804 -0.0013215877 -0.0026001737 0.0010428975 0.0005924255 0.00090551033 -0.0050756293 0.0033366014 -0.0007083693 -0.002880576 -0.003413698 -0.0036087579 -0.004098087 0.004872361 0.0031667235 -0.003721697 0.0015999998 0.00088715635 -0.00040100305 -0.002318607 -0.0021204357 -0.004952978 -0.0007180412 0.0035510042 0.0022771342 -0.00012781422 -0.0006483358 -0.0044118287 -0.00012971746 -0.0010443168 0.001575854 0.0038192607 0.0016934088 -0.001963768 0.0025977036 -0.0046219043 -0.0014159068 0.0015946033 -0.0037355954 -0.0044240137 0.0020203644 -0.0019172223 -0.0032191603 0.00224256 -0.0013620672 -0.0034960841 0.0010603503 -0.0018143316 -0.00232072 0.00036899166 0.0006718875 0.003879534 -0.0015097257 -0.0014954825 -0.0038901004 -0.0027153867 4.6204434e-05 0.0017150232 0.0039773025 0.001051151 0.0030019172 -0.0010546267 0.004876751 -0.0016023627 -0.0014282037 0.00039351746 0.004500081 0.0019112818 0.0029514234 0.0006956548 0.0028622402 -0.0022534605 -0.0022724515 0.0032977131 0.0025969094 0.0041307276 0.0021571824 0.0024375478 0.0033855857 -0.004522149 -0.0017082483 -0.00319141 0.0018133249 -0.0033414734 0.00080750976 -0.001566301 -0.0022139056 -0.002611914 -0.0026006827 0.0022179605 0.0008056001 -0.00022563912 0.0012873536 -0.000696243
台湾 0.00029815128 -0.00050804415 -0.0050140386 -0.0041526477 0.0037469002 -0.000120875775 -0.00030811087 -0.0007039324 -0.0012289464 -0.00429123 0.0030890666 -0.004045028 -0.00092521694 -0.0030665796 0.0005110888 -0.00010286793 0.0042351233 0.003614367 -0.0023436903 0.003031178 -0.004254343 -0.0019414645 -0.0008546045 0.0004257987 0.00032025974 0.00210593 0.0002946151 -0.0004121276 -0.0042069526 0.0008731954 0.0033237862 -0.00010094659 0.0048244074 0.004272632 -0.006140986 0.0016646917 0.0008191108 -0.0035278373 -0.0012756353 -0.0017071752 -0.002627768 0.0031798633 -6.912464e-05 -0.0012683998 -0.0039299526 -0.001268932 0.0041214535 0.004084046 0.0034105657 -0.004402431 -1.0963525e-06 -0.00120264 0.0031043575 -0.0041001053 0.0018374089 -0.0029577878 -0.00038869106 0.0027764319 0.0035206766 0.0023407454 -0.0044694715 0.0019462217 0.0003595397 2.4070366e-06 0.0025188113 0.0037740169 0.0033879082 -0.000572248 0.0041380273 0.005242685 0.0002891204 0.0029355506 0.0014570997 0.0019903227 -0.0031366616 -0.0018606288 0.004053016 0.00028148267 -0.0020071203 -0.0045241755 0.005153606 -0.0030970587 0.004678784 -0.0040000235 -0.00038485654 0.002105744 0.0034412073 -0.0027765664 0.005909878 -0.0028495342 -0.005231671 0.0002559559 -0.00030334742 0.0005669483 -0.002114013 -0.004230164 0.002191803 -0.0018780845 -0.0038054942 -0.004200035
山姆 -0.004027001 -0.004035824 0.0042502885 -0.0058684 -0.0048746853 -0.0027700358 0.00012747066 -0.0012798744 0.0028249265 -0.0023498323 0.0012717416 -0.0041683367 -0.004541555 0.002285083 0.0027844484 -8.3406616e-05 -0.0044667944 0.00025207622 -0.0018188783 -0.0029873468 -0.0033835778 -0.0037210523 -0.0033456634 -0.0022434338 -0.00085079146 0.0020670025 0.0030555648 0.0010239274 -0.0045431135 -0.00032130367 -0.0041152607 0.0027907514 0.0049331244 0.0029765696 0.0029966743 -0.001782134 0.0050472994 -0.0052927895 0.002238508 -0.0046644225 0.0052682213 -0.00017481227 -0.0060326513 -0.0012870941 0.0016588187 0.004038683 -0.0013326627 0.00085655163 0.0037220896 0.0036774038 -0.0033950561 0.0045171743 0.0011285781 -0.00045726937 -0.0044456227 -0.0040151705 0.0017378454 -0.0034106674 0.0034575788 0.00257969 0.0042886646 0.0059327087 -0.0012427382 0.00090592104 0.005372608 0.0021600137 0.0028986111 0.0032613017 -0.00040465544 0.0046881433 -0.001422087 0.0045481664 -0.004989058 -0.004264343 0.0042555975 -0.0018646402 -0.0019067681 0.005844889 -0.0007417723 -0.0028670907 0.0056269947 0.004568746 -0.0044200714 -0.0009164176 0.0014391985 0.0024149988 -0.00603429 -0.0013230656 0.0030007618 0.0011363635 0.0021046686 0.0020093685 -0.0029712592 0.0020351303 0.0053585325 0.0034778267 0.00043986822 0.0028053515 0.005637191 9.56351e-05
女儿 -0.0014298558 0.0043740985 0.0040884335 -0.0012732507 -0.004894727 0.001385991 0.0010550355 0.0032897254 -0.0013070564 -0.001920154 0.003250853 -0.0018992497 -0.0028807633 -0.0005735173 -0.0045874724 0.003590524 -0.004316266 0.0027757997 0.00040201755 0.0025218213 0.0037565292 -0.0056691547 0.0009878332 0.0019516852 -0.003876475 -0.0038855025 -0.00069684186 -0.0003990435 -0.0044555827 0.004535166 -0.0040810946 -0.0027539886 0.004963681 -0.0011621558 1.5176438e-05 -0.0044392445 0.0013182238 0.000120766796 0.0048965914 -0.0057195043 -0.00042753696 0.002710326 -0.004250219 -0.00028270323 0.004071842 -0.001188988 -0.0011078155 -0.0016805131 0.0030615367 0.003811692 0.000576062 -0.0034943842 -0.003412133 -0.002154226 -0.0015143078 -0.0046346104 -0.0041003446 0.0034756789 0.0027219055 -0.0004000822 0.0033687002 0.001532898 -0.0015488288 0.0032477453 0.0061905677 -0.002366159 -0.0017976451 -0.0014090977 -0.0031835234 0.0036310928 0.0027559095 0.0010053932 -0.003724744 0.00206671 -0.0034249676 0.0050476464 -0.0006439621 0.0022560437 0.0035056313 0.0016037037 1.4354482e-06 0.0026185228 -0.0023783236 -0.0004396813 0.002471685 -0.0032834087 -0.0035214177 0.0016013205 0.0023764742 -0.0029595215 -0.004240266 0.003274923 0.0048776506 -0.0026082147 0.0053788987 -0.0017989291 0.005269229 -0.0010301124 0.0004682149 -0.0029475903
基金会 -0.0027834186 0.0050239456 -0.0012926582 -0.0005941488 0.001647513 -0.0036671527 -0.003926684 0.0043618004 -0.00223478 0.002315112 0.0040628444 0.0005008432 -0.00087531185 0.002956044 0.003019515 -0.00409531 0.0010623704 0.0019368837 -0.0055173147 -0.0026352508 0.0010942522 -0.004152085 -0.005618897 -0.0025360256 -0.0034379065 -0.004252642 -0.0042683403 -0.0018558721 0.0017855957 -0.0035342153 0.0018779129 0.0040037003 0.0034601684 -0.001524651 -0.0042354926 0.0005860647 0.0011748413 -0.0061211158 0.0017504066 -0.005515986 0.0042365855 9.328331e-05 -9.547813e-05 0.002965495 -0.004271773 0.00010119518 0.00067330315 0.0032216038 -0.0024439518 -0.0030910238 -0.0029987788 -0.0039469646 0.0006013645 -0.0047208867 0.0028781693 0.00056756975 0.0031206692 0.0008275317 -0.00021564352 0.0036398643 0.0032441977 0.00059586 -0.003022198 0.0026445386 -0.0039513195 0.0009978798 0.0024606315 0.00022387525 0.0036417 0.005732479 0.0024042437 0.0016165152 0.0025670507 -0.001328847 -0.004059177 9.1609356e-05 0.0024630663 0.0040407437 0.0023160328 -0.00423296 0.0021258784 -0.0020066393 -0.0044980515 -0.0009159862 -9.978433e-05 -0.0046320804 -0.004978319 0.00023073274 0.0067493785 0.0029294386 0.00049356127 0.003837969 0.0011276342 -0.00036953314 0.005566307 -0.004193431 -0.00080392294 -0.0001467154 0.0009211506 -0.000921101
成立 0.0035475753 -0.0028477758 0.0019996252 -0.0007054805 0.0010455125 -0.00494553 0.0027698278 0.00011238414 -0.000295165 0.003003294 0.0051297536 -0.003386877 -0.0038139503 -0.0035293277 -0.0019171028 -0.0007814238 -0.0022148676 -0.001992032 -0.0027176593 0.0008562831 -0.004803057 0.0022468232 -0.0035534082 0.0030402935 0.0013661792 -0.000753544 0.002587264 -0.003969143 0.00045357025 0.0035972758 -0.0005195036 -0.002826313 0.0005176697 0.0039979904 -0.005306434 -0.0011974717 -0.0035614779 -0.0018119675 6.704667e-05 -0.00031361746 -0.0046762 0.0031182792 4.471346e-05 -0.0040947082 0.00063640805 0.00051412365 0.004017359 0.004760666 -0.0017673464 -0.0015134048 -0.0029070552 -0.0012289109 -0.00047223477 0.0009845712 -0.0038170507 0.003231161 -0.0028275498 -0.0018013257 0.0017900378 0.0036576856 0.0021786422 -0.001347162 0.004308553 -0.0033877387 0.0012872538 -0.003240629 -0.00089891354 -0.001823278 -0.0044637495 0.0039684875 -0.0012301228 0.00045132227 -0.0036680219 0.0003949561 0.0027008536 0.0016498732 0.0013029235 0.004832974 0.00023552342 0.0002443648 0.00010901163 -0.0013463161 0.0019388146 0.0040398287 -0.0030694641 -0.004399912 -0.0062428378 0.0009891018 0.0049089734 0.0036184967 -0.0002687988 0.0008997957 -0.00063229573 -0.0029499482 -0.0031090975 -0.00267196 -0.0020997724 0.00024441432 0.004531221 -0.003505475
第三 0.0032423018 -0.003273205 0.0047026286 -0.0020055738 0.0025395192 0.0042172945 -0.002407842 -0.0032537044 -8.521831e-05 -0.0039527523 0.0012664811 0.0036752576 -0.0055718245 0.00074300816 -0.004388212 0.0016323623 -0.0004256175 0.001479987 0.0023187979 0.0012063324 -0.0029230441 -0.00010274127 0.0017192065 0.0039292453 0.0016783704 -0.00053906976 -0.0021878842 -0.0044372436 -0.0005711468 0.0001345654 -0.00065380416 -0.004598014 -0.0014705895 -0.002999876 -0.00030234832 0.0021568707 -0.0040670517 -0.0033671851 0.0029540453 -0.0044319453 -0.0043528387 -0.0033931462 -0.0021832418 -0.00085106184 0.0016358896 -0.0015450633 -0.0038025244 0.0047674533 -0.0014224686 0.0028987096 0.0020385506 -0.0013491159 0.0063237078 -0.0037311541 0.0024386107 -0.004298841 -0.00087476877 0.0007910176 0.0013476209 0.0024924397 -0.004147065 0.004204737 0.0010588488 0.0032249591 -0.0013027417 0.00024016715 0.004146172 0.004302252 -0.0018332659 0.00017458179 0.002926676 0.0053577293 -0.0010411171 0.00498176 0.0025967716 0.0008178487 -0.002817597 0.0005931096 -0.0056113326 -0.00070664147 0.0066012796 -0.0029553983 0.0028084666 0.0011057728 0.0007907254 -0.0029521214 0.0009874026 -0.00045433803 0.0017975193 -0.0035115152 -0.0027054849 -0.0036812564 0.0032951506 -0.0023871379 0.00042412983 -0.003674442 0.0028396999 0.0011525053 0.0039275303 -0.002600409
华视 -0.0038749524 0.0024395334 0.00016800466 -0.0018251757 0.0025048573 -0.003961828 0.0013732222 0.0014413599 0.0023929516 -0.0025527868 0.005186926 0.0009616262 0.0035404176 0.005166606 0.0027369752 0.0036058247 -0.0024042826 -0.0024343645 0.0037321583 0.0015905403 -0.0040726727 0.0034016848 -0.005929027 0.0014224738 -0.0025305906 0.0025660612 -0.0044611376 0.0041583073 -0.0034922385 0.0042778873 0.001052141 -0.0057093385 0.0031640404 0.0030905611 -0.0050312444 -0.0011277833 0.003598635 -0.0031909484 -0.004453149 0.0005758313 3.331839e-05 -0.002662663 -0.005941304 0.0046351636 -0.0004832145 -0.0021659227 0.0002989548 -0.003827354 0.0034854533 -0.00092669716 -0.0028820918 -0.0027005086 0.0042974325 0.0031527332 -0.0027682348 -0.0013093384 -0.0039455933 0.004139677 -0.0052577592 0.000631693 -0.0011156257 0.0021834215 -0.002057004 0.00012879059 -0.0012431522 0.004430632 -0.0048471256 0.0053025936 0.0037796178 0.0022191738 -0.005653501 -0.0012583167 0.001905225 0.0023325211 -0.0033423956 -0.0041154968 0.0014981234 0.0055853366 0.001918696 -0.000692427 -0.0035355801 0.0010428169 -0.00021732677 0.0016745207 -0.0027008844 -0.005508878 -0.0006091749 0.0055230893 0.00037636704 -0.0047633443 0.0028844906 -0.0009211224 -0.0014843359 -0.0012365136 0.0037361411 -0.00071115803 -0.004536786 -0.00089889986 -0.0030390446 0.0042781434
负责 -0.0020200235 0.0011188935 -0.00067999674 -0.002815693 -0.0042236177 -0.0023075845 -0.0013921426 -0.0025714682 0.00052640156 0.0026149387 0.0019440412 0.004693146 0.0042805444 -0.0003086462 -0.0011723202 0.0026873318 0.0033789983 -0.002613467 0.0024572492 0.0040546334 0.0035698973 0.0019974892 -0.0033568614 0.0045282235 0.003943931 0.0007635936 0.00068350334 8.6963206e-05 0.00400026 -0.0045886748 0.0051741744 -0.0029338372 0.0049899938 -0.0038937868 -0.0037021942 0.00030792085 0.002652397 -0.002990252 0.004139194 -0.0011427522 0.003553025 0.0019779764 0.0007228482 -0.0038417063 -7.382088e-05 0.0040926505 -0.0023012515 0.0004775294 0.0025420568 -0.0042480337 -0.002980525 -0.0009670972 0.0008460634 -0.0014143771 -0.0021238185 -0.0025696019 -0.0018829152 -0.0055365376 0.0022928084 0.0040571424 0.0013045223 0.0007232905 0.00476808 0.0041295537 0.0051529105 0.004070196 -0.0051040826 -0.0022660857 -0.004025051 -0.004160404 0.0030062888 -0.0011065367 0.0007137523 -0.0024349547 -0.0017552072 0.0044425544 -0.004983845 -0.00045489837 0.0010462283 -0.0018475929 0.00039776383 0.004197135 0.0036729346 -0.0012178 -0.0012035489 0.0019908072 -2.6441561e-05 0.0042092633 0.0020035652 -0.0036725062 0.0034058904 -0.0040511177 7.743813e-05 -0.0015872329 -0.0022032238 0.0025571561 0.0013749781 0.004433535 0.002027398 -0.002282004
啼笑 -0.0041933306 -0.0026633055 0.0045516733 -0.003397239 0.0029357665 -6.4588035e-06 0.00018521176 0.00022720404 0.00046755697 0.0002205495 -0.003815084 0.0024302704 -0.0014855718 0.005044272 -0.0036795037 -0.0019277203 0.0010067263 -0.004327022 0.003056549 0.002951038 -0.0049881805 -0.0050201397 0.0037699216 0.00068646023 0.0035387883 0.0021577668 -0.0051363236 -0.00037438507 -0.0012860178 -0.0023092607 -0.004090122 -0.0018055491 0.00042686536 0.0051222574 -0.0059321476 -0.004169283 -0.0019308619 -0.0014597098 0.0049341293 0.0017080128 -0.0015229222 -0.0037429756 -0.0017612755 0.0046634767 -0.0020832787 -0.0025586893 0.0037569841 0.0022883702 0.0013048385 -0.0026402054 0.0010830114 0.002304609 -0.00247922 -0.00047487547 -0.0028951974 0.004392459 0.0037792064 -0.002847669 -0.002782743 -0.0011016404 0.003562331 -0.003691794 0.0049726665 -0.0031986213 -0.00096594373 -0.0023753103 0.004018497 0.002679998 0.0016291937 0.0050994614 -0.00021475009 -0.0017796238 -0.0007680588 0.0007384671 0.0021423176 -0.003261499 0.0024471863 0.004699097 0.0022143067 -0.003226263 0.000913592 -0.0050855647 0.001349139 0.0035355457 0.0010417447 0.004048587 -0.007132861 -0.0035444533 0.0068354285 -0.004666227 0.0010406646 0.0026049772 0.002925233 -0.0053305663 0.00077389367 0.004688639 0.005126673 0.001133435 -0.0034733762 -0.0004203919
因缘 0.005022414 0.0030878868 0.0034999617 -0.005031827 -0.0013265864 0.005113571 0.0056554135 -0.0012478953 0.0034542999 -0.0010554199 0.0058114263 -0.004995273 0.00034975333 -0.00070191483 0.0014559756 -0.0017886227 0.0018913173 0.0042453734 -1.0050413e-05 -0.00028736252 -0.0014875807 0.0019626673 -0.004925176 0.0018367005 0.0006099006 -0.0044112657 -0.0010725936 -0.0030480793 -0.00078810204 -0.0012388205 -0.0012667343 -0.001965888 0.0025660822 -0.004187291 -0.001268205 -0.0056552016 -0.001390831 -0.0056644534 -0.0028139278 0.002623019 0.0035527393 0.0012475771 -0.0005819061 -0.00065781514 0.00038958483 -0.0018870903 -0.0042571323 -0.0038183797 0.003350808 -0.0027799318 0.0060202796 0.0013054422 0.0028942497 0.001887399 0.0014951248 -0.0055462657 0.005706035 -0.0032743458 -0.0053112097 0.0005384563 0.00094549044 0.004681565 0.0058816215 -0.0036983914 -0.001781134 -0.0026738355 0.0021262716 0.0032029978 0.0007198906 -0.0017091513 0.00030336808 0.003998016 -0.0016708485 -0.000920994 0.0041248156 -0.0043863226 -0.0045638303 0.0013311883 -0.001007448 -0.004944445 0.004439345 0.0040023387 -0.0031463774 -0.002291852 0.0026459924 0.0016083609 -0.006782898 -0.0007598192 0.0019228534 -0.004269253 -0.00028839137 0.0012202356 0.003634513 -0.005118284 0.0038221928 -0.00024119564 -0.0030926727 -0.0022214926 0.0011424825 -0.00049035234
